tree
version=v4
num_class=1
num_tree_per_iteration=1
label_index=0
max_feature_idx=14
objective=regression
feature_names=Column_0 Column_1 Column_2 Column_3 Column_4 Column_5 Column_6 Column_7 Column_8 Column_9 Column_10 Column_11 Column_12 Column_13 Column_14
feature_infos=[-3:3] [-3:3] [-3:3] [-0.67470306158065796:3] [-1.4612919092178345:3] [-3:3] [-1.5369434356689453:3] [-1.1115791797637939:1.1241512298583984] [-3:3] [-3:3] [0:3] [-3:3] [0:3] [-3:0.67449080944061279] [-1.4391411542892456:3]
tree_sizes=3024 2978 2887 2979 2784 3004 2944 2940 2967 2858 2758 2647 3004 2791 3029 2760 2977 2964 2495 2943 2992 3039 2988 3038 2968

Tree=0
num_leaves=31
num_cat=0
split_feature=5 13 13 4 4 5 4 5 5 4 7 3 14 4 10 14 4 13 9 5 5 14 7 13 3 4 3 8 14 3
split_gain=0.0563425 0.0502093 0.0423729 0.0382836 0.123644 0.132374 0.079513 0.0450332 0.0438103 0.0411883 0.0409818 0.0386155 0.028164 0.0278147 0.0247564 0.0237003 0.0209626 0.0244506 0.0203278 0.0199353 0.0192685 0.0183922 0.0183377 0.0134193 0.0216692 0.010231 0.00958031 0.00938201 0.00908867 0.00866837
threshold=1.5703697204589846 0.21117477864027026 -1.6536486744880674 -1.0000000180025095e-35 1.0000000180025095e-35 -0.5055214762687682 2.0224243402481084 -0.43489547073841089 -1.4515073299407957 0.9240919053554536 -0.54663461446762074 -0.67458051443099964 -0.38260284066200251 1.2269641160964968 1.0000000180025095e-35 -0.14630380272865293 0.71323916316032421 -0.22801481932401654 1.0000000180025095e-35 1.0791428685188296 -0.8440127670764922 0.41611470282077795 -0.86850702762603749 0.44903260469436651 -0.67458051443099964 -0.19951786100864408 -0.55213332176208485 1.0000000180025095e-35 0.24002097547054294 2.4565415382385258
decision_type=2 2 2 2 2 2 2 2 2 2 2 2 2 2 2 2 2 2 2 2 2 2 2 2 2 2 2 2 2 2
left_child=3 2 21 7 -5 6 8 15 -6 11 -8 -7 -4 -3 23 25 29 -18 -11 26 22 27 -17 24 -9 -1 -16 -2 -22 -14
right_child=1 13 12 4 5 9 10 14 -10 18 -12 -13 16 -15 19 20 17 -19 -20 -21 28 -23 -24 -25 -26 -27 -28 -29 -30 -31
leaf_value=-0.00030782349779193727 -0.00065847995387069815 -0.00015868088236516533 0.00012639064552948917 -0.0021033630627374897 -0.00066486499049839959 0.00076646725825278619 0.00098242981449021111 -0.00100888079325478 8.9888763459950144e-06 -0.0006256979812912409 -0.00010171157428262405 -0.00042151433049584348 0.0019808999881762669 -0.0015692462632529917 0.0017486710415948127 -0.00077592601552817957 0.0003672272859547593 0.0016756056345741536 -0.00114805828298449 -0.0006321194018093293 -0.00079432769865060747 -0.0018907123686281307 -0.002120871611343915 -0.00020491104447908765 3.4094865157671797e-05 0.00021416780327057714 0.00057101696890172506 0.00070955163813753641 -0.00018517971048736176 0.00067680809413713915
leaf_weight=667 33 169 193 96 312 71 285 50 1054 632 133 1466 59 43 25 90 185 48 287 27 102 21 41 1070 2140 108 122 20 133 26
leaf_count=667 33 169 193 96 312 71 285 50 1054 632 133 1466 59 43 25 90 185 48 287 27 102 21 41 1070 2140 108 122 20 133 26
internal_value=-0.000185283 0.000217474 0.000457568 -0.000221307 -0.000327941 -0.000287131 3.98197e-05 -0.00012079 -0.000146764 -0.00052564 0.000643507 -0.000364981 0.000621286 -0.000433255 -2.99502e-05 -0.00039199 0.00091369 0.000647833 -0.000791593 0.000553959 -0.000724233 -0.00063899 -0.00121652 -6.18936e-05 9.12285e-06 -0.000231835 0.000788889 -0.000185283 -0.000439013 0.00161214
internal_weight=9708 797 585 8911 4336 4240 1784 4575 1366 2456 418 1537 511 212 3434 1141 318 233 919 174 366 74 131 3260 2190 775 147 53 235 85
internal_count=9708 797 585 8911 4336 4240 1784 4575 1366 2456 418 1537 511 212 3434 1141 318 233 919 174 366 74 131 3260 2190 775 147 53 235 85
is_linear=0
shrinkage=1


Tree=1
num_leaves=31
num_cat=0
split_feature=1 12 5 5 1 9 9 3 1 4 5 4 4 4 13 4 9 5 1 6 13 14 13 13 14 4 3 9 6 6
split_gain=0.112558 0.0568454 0.145335 0.0667068 0.0605021 0.0546046 0.0715036 0.053939 0.0529595 0.0642709 0.040746 0.0401536 0.0349135 0.0307464 0.0304099 0.0291764 0.0267568 0.0254633 0.022944 0.0205846 0.0203663 0.0181075 0.0176782 0.015967 0.0158108 0.0157249 0.00902875 0.00794167 0.0159685 0.00538194
threshold=-2.9990897178649898 1.0000000180025095e-35 -1.6608014106750486 1.5149815082550051 1.0794544816017153 -1.0000000180025095e-35 1.0000000180025095e-35 -0.67431014776229847 -1.6284005641937254 0.30734299123287206 -0.54711642861366261 1.0654593110084536 1.638525187969208 2.9993033409118657 -1.613471984863281 2.6603132486343388 1.0000000180025095e-35 -0.076486669480800615 -2.2395058870315547 -0.30127501487731928 0.11061042919754983 0.41611470282077795 0.11252235621213914 0.17375113070011142 1.0000000180025095e-35 2.1550899744033818 -0.67458051443099964 1.0000000180025095e-35 1.1867895722389223 0.10599311441183092
decision_type=2 2 2 2 2 2 2 2 2 2 2 2 2 2 2 2 2 2 2 2 2 2 2 2 2 2 2 2 2 2
left_child=13 3 15 8 5 19 -7 24 12 16 -11 26 23 -1 21 18 -10 -13 -3 -4 -14 -9 -16 -2 -5 -26 -6 28 29 -15
right_child=1 2 4 7 11 6 -8 14 9 10 -12 17 20 27 22 -17 -18 -19 -20 -21 -22 -23 -24 -25 25 -27 -28 -29 -30 -31
leaf_value=6.3452699886044046e-05 -9.5401413164934506e-05 -0.0035073982674383116 1.2206923529678958e-05 0.00062471015773796559 0.00078310426616732924 -0.00086587408545351805 0.00019571027679696662 -7.2484217601262387e-05 0.00010267189372151042 7.1333158556205074e-05 -0.00044414925447493241 1.6131505999469154e-05 0.0006716627791673094 0.0015228091003869314 0.00059473823836036013 -4.6410184346519179e-06 -0.00018650436353067975 -0.0017374596025364728 -0.0016787778725713132 0.00073890104624855829 0.0018888702445864426 -0.0017962019700645882 3.6027109500683818e-06 0.00081811121156629958 0.002970743992585503 0.0012029791509936207 -0.00035582951842715732 0.0029890251467601702 0.0027780307153817633 0.00026426433525855638
leaf_weight=31 222 25 165 37 20 278 363 55 3888 522 1366 22 185 26 443 23 1003 111 106 266 47 23 189 60 29 35 103 21 23 21
leaf_count=31 222 25 165 37 20 278 363 55 3888 522 1366 22 185 26 443 23 1003 111 106 266 47 23 189 60 29 35 103 21 23 21
internal_value=0 -1.91976e-05 -0.00030408 3.25927e-05 -0.000133399 2.92857e-05 -0.000260828 0.000462853 -1.49134e-05 -5.23481e-05 -0.000300305 -0.000824277 0.000473896 0.00150885 0.000304608 -0.00175918 4.28579e-05 -0.0014287 -0.00204803 0.000466534 0.00092938 -0.000613616 0.000421928 9.02099e-05 0.00154983 0.00204472 -0.000150077 0.00197347 0.0016312 0.00101449
internal_weight=9708 9586 1482 8104 1328 1072 641 811 7293 6779 1888 256 514 122 710 154 4891 133 131 431 232 78 632 282 101 64 123 91 70 47
internal_count=9708 9586 1482 8104 1328 1072 641 811 7293 6779 1888 256 514 122 710 154 4891 133 131 431 232 78 632 282 101 64 123 91 70 47
is_linear=0
shrinkage=0.05


Tree=2
num_leaves=30
num_cat=0
split_feature=1 12 5 5 2 5 3 1 9 1 7 2 9 5 6 6 9 14 14 14 14 14 14 9 3 1 5 2 1
split_gain=0.10217 0.0513285 0.131475 0.0602769 0.0571517 0.0658731 0.0488681 0.0478433 0.0431403 0.0425058 0.0397933 0.0338041 0.0270258 0.0157209 0.0153462 0.0201388 0.0149949 0.0177366 0.0131539 0.0130071 0.0196887 0.0137977 0.0125573 0.0125351 0.0111345 0.0178779 0.00821193 0.00610006 0.00131791
threshold=-2.9990897178649898 1.0000000180025095e-35 -1.6608014106750486 1.5149815082550051 -7.8045432019280256e-05 -0.92287626862525929 -0.67431014776229847 -1.6284005641937254 1.0000000180025095e-35 1.0794544816017153 -1.0000000180025095e-35 0.00039794718031771486 -1.0000000180025095e-35 0.4037583619356156 0.049351705238223083 1.1867895722389223 1.0000000180025095e-35 1.0000000180025095e-35 2.1458029747009282 0.41611470282077795 0.85623478889465343 -0.16386862099170682 2.9912747144699101 -1.0000000180025095e-35 -0.48144288361072535 -2.2395058870315547 -2.040848851203918 2.4887067079544072 -1.7879626154899595
decision_type=2 2 2 2 2 2 2 2 2 2 2 2 2 2 2 2 2 2 2 2 2 2 2 2 2 2 2 2 2
left_child=14 3 24 7 10 27 16 18 12 -7 13 -10 -9 -4 -1 -16 17 -5 26 21 -21 -8 -17 -12 -3 -26 -2 -6 -27
right_child=1 2 4 6 5 9 19 8 11 -11 23 -13 -14 -15 15 22 -18 -19 -20 20 -22 -23 -24 -25 25 28 -28 -29 -30
leaf_value=0.0023993463763863224 0.00092620693833347055 -0.00058013573923503946 0.00035631186762263275 0.00047466902318865135 -0.0014514301346117444 1.3462482037249444e-05 0.00020566876591016463 -0.00017873042513596158 -0.00054057352906406451 -0.00078906287742214621 -3.3203629046614182e-05 -5.9260150426357018e-05 8.2325929887242045e-05 0.0017601211937545648 7.5834138946062249e-05 0.00061996608809937567 0.00014982070655488982 0.0022777684954036681 0.0017432514213471487 -0.001199727842667952 0.00034841055654183471 0.00072902870898616356 0.0024023541913763737 -0.001616502210189837 -0.0030047302438777042 -0.00080748248660700056 0.0003032543289644563 -0.0027626543688519267 -0.0016303070056122851
leaf_weight=34 67 26 452 23 46 483 439 1319 701 246 26 788 3971 22 37 22 21 57 20 35 46 190 29 32 31 20 427 21 77
leaf_count=34 67 26 452 23 46 483 439 1319 701 246 26 788 3971 22 37 22 21 57 20 35 46 190 29 32 31 20 427 21 77
internal_value=0 -1.81725e-05 -0.000288887 3.10267e-05 -0.000126449 -0.000395877 0.00044003 -1.41153e-05 -4.97124e-05 -0.000253955 0.000271981 -0.000287545 1.67609e-05 0.00042692 0.00143766 0.00103655 0.00147493 0.00179123 0.00045046 0.000289197 -0.00029002 0.000367778 0.00168381 -0.000950454 -0.00167293 -0.00187506 0.000392889 -0.00190145 -0.00148692
internal_weight=9708 9586 1482 8104 1328 796 811 7293 6779 729 532 1489 5290 474 122 88 101 80 514 710 81 629 51 58 154 128 494 67 97
internal_count=9708 9586 1482 8104 1328 796 811 7293 6779 729 532 1489 5290 474 122 88 101 80 514 710 81 629 51 58 154 128 494 67 97
is_linear=0
shrinkage=0.05


Tree=3
num_leaves=31
num_cat=0
split_feature=1 5 4 4 5 5 13 4 13 0 4 14 4 14 10 4 1 5 2 14 4 8 2 9 0 5 14 7 1 0
split_gain=0.0926324 0.0463833 0.0468539 0.0883 0.0744632 0.0396969 0.0389937 0.038193 0.0342179 0.0319384 0.0266268 0.0232232 0.022749 0.0209488 0.020939 0.0190724 0.018797 0.0163581 0.0145362 0.0137112 0.00914061 0.00778961 0.00719257 0.00706119 0.00744468 0.00473286 0.00311186 0.00481701 0.00229144 0.00214546
threshold=-2.9990897178649898 1.5703697204589846 -1.0000000180025095e-35 1.0000000180025095e-35 -0.43489547073841089 -0.43489547073841089 0.21117477864027026 0.9240919053554536 -1.6536486744880674 -0.30681200325489039 2.9993033409118657 -0.38260284066200251 1.2269641160964968 -0.14630380272865293 1.0000000180025095e-35 0.71323916316032421 0.15713634341955188 -0.8440127670764922 0.00012784179125446829 0.41611470282077795 -0.19951786100864408 1.0000000180025095e-35 1.4920801520347597 1.0000000180025095e-35 -1.5618652701377866 -2.1116577386856075 -0.91265419125556935 0.94477209448814403 -1.0000000180025095e-35 0.024364773184061054
decision_type=2 2 2 2 2 2 2 2 2 2 2 2 2 2 2 2 2 2 2 2 2 2 2 2 2 2 2 2 2 2
left_child=10 2 5 25 9 13 8 -6 19 -5 -1 22 26 20 18 -13 -16 -15 -7 21 -2 -3 -10 24 -12 28 -8 -28 -4 -26
right_child=1 6 3 4 7 14 12 -9 11 -11 23 15 -14 17 16 -17 -18 -19 -20 -21 -22 -23 -24 -25 29 -27 27 -29 -30 -31
leaf_value=1.9760094972960229e-05 -0.00011599880396508848 -0.00046730722338045745 -0.00069534029203533745 -0.00010950513672305302 -0.00016258764896500685 1.287468728467371e-06 0.00030880109454264502 -0.0005842856143938132 0.00046404064823359222 0.0003115456433648134 0.0023683945078393359 0.0016371612753704038 -0.0012524088917332016 -0.00096156667422368921 0.0013730241821106061 0.00071864854015625914 0.00025739263686858608 -0.00024314447143347886 0.00021456757485431523 -0.0015040157522094788 0.000377251294100302 0.00078186071187517881 -0.00017369586313348409 0.0027608562260866163 0.00047593193362063628 -0.0022942426825136924 0.00024141230842254899 -0.00042649629605192777 -0.0016087088382822192 0.0014049132979886397
leaf_weight=31 667 33 23 869 1452 1524 64 875 134 922 21 85 43 131 64 233 110 235 1736 21 108 20 59 21 22 32 43 62 41 27
leaf_count=31 667 33 23 869 1452 1524 64 875 134 922 21 85 43 131 64 233 110 235 1736 21 108 20 59 21 22 32 43 62 41 27
internal_value=0 -1.72522e-05 -5.06214e-05 -0.000171062 -0.000135445 5.97701e-05 0.000347573 -0.000322238 0.00055934 0.000105857 0.00136896 0.000706721 -0.000224988 -0.000194803 0.000145085 0.000972242 0.00068238 -0.000507211 0.000115631 -0.000424412 -4.40165e-05 0 0.00025614 0.00180086 0.0014754 -0.001672 2.19309e-05 -0.000129189 -0.0013203 0.0010397
internal_weight=9708 9586 8789 4214 4118 4575 797 2327 585 1791 122 511 212 1141 3434 318 174 366 3260 74 775 53 193 91 70 96 169 105 64 49
internal_count=9708 9586 8789 4214 4118 4575 797 2327 585 1791 122 511 212 1141 3434 318 174 366 3260 74 775 53 193 91 70 96 169 105 64 49
is_linear=0
shrinkage=0.05


Tree=4
num_leaves=29
num_cat=0
split_feature=1 5 4 4 5 14 14 3 5 4 4 4 10 14 1 5 5 1 2 14 14 14 5 9 6 5 6 1
split_gain=0.0841419 0.0420206 0.0405722 0.0799874 0.068279 0.0445287 0.0352718 0.0420344 0.0348539 0.0244814 0.0240292 0.0225893 0.0192759 0.0189326 0.0169011 0.0147157 0.0134689 0.0179064 0.012974 0.00942716 0.0195534 0.0118406 0.00891797 0.00614193 0.0128294 0.00408015 0.00398435 0.00194255
threshold=-2.9990897178649898 1.5149815082550051 -1.0000000180025095e-35 1.0000000180025095e-35 -0.030810472555458542 0.046306367963552482 1.757709860801697 -0.67431014776229847 -0.43489547073841089 1.3339116573333742 2.9993033409118657 1.2269641160964968 1.0000000180025095e-35 -0.14630380272865293 0.15713634341955188 -0.8440127670764922 2.3959654569625859 1.9140247702598574 0.00012784179125446829 0.41611470282077795 0.85623478889465343 -0.16386862099170682 -1.3182949423789976 1.0000000180025095e-35 1.1867895722389223 -2.1116577386856075 0.10599311441183092 -1.0000000180025095e-35
decision_type=2 2 2 2 2 2 2 2 2 2 2 2 2 2 2 2 2 2 2 2 2 2 2 2 2 2 2 2
left_child=10 2 8 25 9 -6 7 16 13 -5 -1 -8 18 22 -14 -15 17 -3 -10 21 -21 -9 -2 24 26 27 -12 -4
right_child=1 6 3 4 5 -7 11 19 12 -11 23 -13 14 15 -16 -17 -18 -19 -20 20 -22 -23 -24 -25 -26 -27 -28 -29
leaf_value=1.8773658273084725e-05 0.00034363845033552891 0.00051839717856630712 -0.00066064869987004626 -6.4297824957234019e-05 4.5425984673549071e-05 -0.00052863493227976071 8.5923687657749967e-05 0.00018129919347327931 0 0.00028022426884325412 0.001283584553489172 -0.0016839534052471234 0.0013044265466018827 -0.00091350668340740902 0.00024452884498582598 -0.00023098984691670009 0.00017656125451504797 0.0022538459776396398 0.00019930529559624108 -0.0011302250288307304 0.00044809943447099931 0.00066674480133850622 -0.00011819387214314259 0.0026231412472747569 0.0024357747126960575 -0.0021797095106238307 0.00018351302231106722 -0.0015283713611829732
leaf_weight=31 123 27 23 1636 455 1230 33 439 1516 749 26 34 64 131 110 235 23 51 1715 35 42 190 652 21 23 32 21 41
leaf_count=31 123 27 23 1636 455 1230 33 439 1516 749 26 34 64 131 110 235 23 51 1715 35 42 190 652 21 23 32 21 41
internal_value=0 -1.64037e-05 -4.98093e-05 -0.000162671 -0.000128345 -0.000372141 0.000313706 0.000407278 5.30691e-05 4.28534e-05 0.00130475 -0.000775523 0.000133639 -0.000185174 0.000649003 -0.0004822 0.00136716 0.00168586 0.000105102 0.00026633 -0.000237142 0.000331952 -4.16536e-05 0.00171512 0.00140535 -0.00159112 0.000845916 -0.00125632
internal_weight=9708 9586 8712 4166 4070 1685 874 807 4546 2385 122 67 3405 1141 174 366 101 78 3231 706 77 629 775 91 70 96 47 64
internal_count=9708 9586 8712 4166 4070 1685 874 807 4546 2385 122 67 3405 1141 174 366 101 78 3231 706 77 629 775 91 70 96 47 64
is_linear=0
shrinkage=0.05


Tree=5
num_leaves=31
num_cat=0
split_feature=1 12 9 3 9 1 9 4 1 9 13 1 4 13 14 4 13 2 14 1 3 4 4 2 3 0 0 7 9 0
split_gain=0.0764462 0.041493 0.0794342 0.0843751 0.0682684 0.0518853 0.046657 0.0429548 0.0360795 0.0320363 0.0334023 0.0482607 0.0301119 0.0264273 0.0292345 0.0230129 0.0217332 0.0424684 0.0344273 0.0273359 0.030549 0.0216842 0.0169913 0.0169218 0.0168095 0.00637264 0.00570633 0.00618115 0.00532324 0.00608917
threshold=-2.9990897178649898 1.0000000180025095e-35 -1.0000000180025095e-35 -0.6746067702770232 1.0000000180025095e-35 0.7356129288673402 1.0000000180025095e-35 2.6603132486343388 1.1778158545494082 -1.0000000180025095e-35 -1.613471984863281 2.6824477910995488 0.65743651986122142 0.13603721559047702 -0.47385679185390467 1.0224711894989016 0.0034103838261216883 0.00039794718031771486 1.6046417355537417 -1.3819088935852049 2.9991557598114018 2.9993033409118657 -0.5590415596961974 0.00011337158866808751 -0.67442861199378956 1.0885781049728396 -0.99614796042442311 0.12753916531801227 1.0000000180025095e-35 -1.5618652701377866
decision_type=2 2 2 2 2 2 2 2 2 2 2 2 2 2 2 2 2 2 2 2 2 2 2 2 2 2 2 2 2 2
left_child=21 6 8 23 7 -6 9 -5 26 13 12 -12 -11 14 -2 -15 17 18 -8 20 -18 -1 -21 -4 -19 -10 -3 -28 29 -23
right_child=1 2 3 4 5 -7 16 -9 25 10 11 -13 -14 15 -16 -17 19 24 -20 22 -22 28 -24 -25 -26 -27 27 -29 -30 -31
leaf_value=1.7836495061163545e-05 8.6406468220850952e-05 1.7823923153029028e-05 0.00058335962872976713 -0.00132490755811436 0.00022888294623737358 -0.00079449475148681481 -0.00078447446286259131 -1.1340039251412938e-05 -0.0015671794453810993 -1.4037438574735097e-05 0.00016780479997148784 0.0011055827810348795 -0.00099766568150211755 3.2579576800837739e-05 -0.00045416380151331567 0.00094322489151228586 0.0018449105880602255 0.0011031244021364984 0.0011556948790702474 0.00025766896776629686 -0.0002175041850597763 0.0021556292925994499 -0.00025028138898662675 0.0024807638857035838 -9.9434594662735202e-05 -0.0002761375578217162 0.00062263828089013278 0.00010111752985275237 0.0024922957413801104 0.00093591129236401775
leaf_weight=31 395 88 38 358 273 223 462 80 26 321 4190 143 105 413 651 85 40 31 23 232 29 21 545 21 439 24 263 88 21 49
leaf_count=31 395 88 38 358 273 223 462 80 26 321 4190 143 105 413 651 85 40 31 23 232 29 21 545 21 439 24 263 88 21 49
internal_value=3.06535e-08 -1.55436e-05 -0.000258964 -0.000516681 -0.000634341 -0.000226218 2.86642e-05 -0.00109072 0.000259261 9.30633e-05 0.000157479 0.000199343 -0.000262438 -0.000103863 -0.000247644 0.00019311 -0.000195323 -0.000358863 -0.000687203 -7.74613e-06 0.000942363 0.00124375 -9.53913e-05 0.00130257 -1.46894e-05 -0.000998324 0.000408286 0.000499041 0.00163367 0.00133879
internal_weight=9708 9586 1482 993 934 496 8104 438 489 6303 4759 4333 426 1544 1046 498 1801 955 485 846 69 122 777 59 470 50 439 351 91 70
internal_count=9708 9586 1482 993 934 496 8104 438 489 6303 4759 4333 426 1544 1046 498 1801 955 485 846 69 122 777 59 470 50 439 351 91 70
is_linear=0
shrinkage=0.05


Tree=6
num_leaves=31
num_cat=0
split_feature=1 12 5 5 2 5 1 4 4 7 3 5 4 13 14 4 1 4 13 9 5 14 14 9 13 0 0 2 9 6
split_gain=0.0693548 0.0374072 0.103444 0.0456802 0.0438909 0.0529786 0.0432066 0.0496494 0.0367801 0.036431 0.0333331 0.0305158 0.0297583 0.0295886 0.0262865 0.0217466 0.021214 0.0195298 0.017553 0.0173069 0.0169649 0.0151438 0.0143312 0.0138145 0.0134826 0.00989379 0.00508633 0.00507186 0.00462314 0.01094
threshold=-2.9990897178649898 1.0000000180025095e-35 -1.6608014106750486 1.2466941475868227 4.5487178795156076e-05 -0.9360012114048003 -1.6284005641937254 0.080776896327734007 1.0654593110084536 -1.0000000180025095e-35 -0.67431014776229847 -0.51486960053443898 1.638525187969208 -1.613471984863281 0.76082029938697826 2.6603132486343388 -2.2395058870315547 2.9993033409118657 0.11061042919754983 1.0000000180025095e-35 0.4037583619356156 0.41611470282077795 -0.0063463163096457711 1.0000000180025095e-35 0.17375113070011142 -1.0000000180025095e-35 -2.4627168178558345 2.4887067079544072 1.0000000180025095e-35 1.1867895722389223
decision_type=2 2 2 2 2 2 2 2 2 2 2 2 2 2 2 2 2 2 2 2 2 2 2 2 2 2 2 2 2 2
left_child=17 3 15 6 9 27 12 14 -7 20 19 -9 24 21 -8 16 -3 -1 -14 22 -4 -12 -5 -15 -2 -11 -18 -6 29 -19
right_child=1 2 4 10 5 8 7 11 -10 25 13 -13 18 23 -16 -17 26 28 -20 -21 -22 -23 -24 -25 -26 -27 -28 -29 -30 -31
leaf_value=1.6946102876438129e-05 -0.00010594903326081019 -0.0031149020124814231 0.00029176140435252014 0.00030127473174724182 -0.0012982886987788146 5.9174339609660883e-06 3.5257559973246935e-05 2.3015106886549466e-05 -0.00080106461435897655 -0.001657292462082323 -0.00017793080677458217 -0.00036972971446186658 0.00059868526128339017 0.00039552175415367692 0.001769187056212401 0 -0.00048129644638675127 0.00075183149738193718 0.0017308776888909267 0 0.0015829709791776528 -0.0016351657149652208 0.001723107236566229 -6.6728137579093045e-05 0.0007342089409056652 -0.00032972579993721792 -0.0015588910320040329 -0.0025359529692175267 0.0023679768710868376 0.0022278690359145079
leaf_weight=31 222 25 491 29 42 477 4115 708 197 25 67 1556 185 761 22 23 21 47 47 34 28 27 77 194 60 47 85 21 21 23
leaf_count=31 222 25 491 29 42 477 4115 708 197 25 67 1556 185 761 22 23 21 47 47 34 28 27 77 194 60 47 85 21 21 23
internal_value=1.08832e-07 -1.47132e-05 -0.000245847 2.72476e-05 -0.000101546 -0.000360222 -2.16393e-05 -5.74007e-05 -0.000226284 0.000216806 0.000313657 -0.000245808 0.000418807 0.000213909 4.51039e-05 -0.00147354 -0.00172257 0.00118475 0.000839149 0.00104285 0.000366384 -0.000623727 0.00135801 0.000299003 6.40428e-05 -0.000826215 -0.00136931 -0.00175218 0.00155488 0.00127375
internal_weight=9708 9586 1482 8104 1328 737 6915 6401 674 591 1189 2264 514 1049 4137 154 131 122 232 140 519 94 106 955 282 72 106 63 91 70
internal_count=9708 9586 1482 8104 1328 737 6915 6401 674 591 1189 2264 514 1049 4137 154 131 122 232 140 519 94 106 955 282 72 106 63 91 70
is_linear=0
shrinkage=0.05


Tree=7
num_leaves=31
num_cat=0
split_feature=1 12 5 5 2 5 1 1 9 13 7 3 13 9 13 3 3 5 9 14 14 9 6 6 13 5 7 1 1 5
split_gain=0.0629426 0.0338803 0.0936242 0.0412006 0.039932 0.0509089 0.03903 0.0355583 0.0310109 0.0358201 0.0307812 0.0302107 0.0267985 0.018376 0.0174871 0.0191105 0.0174582 0.0155721 0.0155699 0.0136109 0.0128054 0.0124961 0.0122233 0.0149314 0.0292575 0.0121698 0.00955144 0.00703159 0.00414938 0.00384415
threshold=-2.9990897178649898 1.0000000180025095e-35 -1.6608014106750486 1.2466941475868227 -7.8045432019280256e-05 -0.74525767564773548 -1.6284005641937254 1.0794544816017153 1.0000000180025095e-35 -1.0142949819564817 -0.043286198750138276 -0.67431014776229847 -1.613471984863281 -1.0000000180025095e-35 0.11061042919754983 -0.345646321773529 2.9991557598114018 -0.8440127670764922 1.0000000180025095e-35 0.41611470282077795 -0.0063463163096457711 1.0000000180025095e-35 0.049351705238223083 1.1867895722389223 0.18878958374261859 -0.058885090053081506 -0.43672068417072291 -1.7495167255401609 -2.1738628149032588 -0.92287626862525929
decision_type=2 2 2 2 2 2 2 2 2 2 2 2 2 2 2 2 2 2 2 2 2 2 2 2 2 2 2 2 2 2
left_child=22 3 26 6 10 29 14 -7 13 -10 17 18 19 -8 15 -2 -16 -4 20 -13 -5 -14 -1 -24 -25 -12 28 -28 -3 -6
right_child=1 2 4 11 5 7 8 -9 9 -11 25 12 21 -15 16 -17 -18 -19 -20 -21 -22 -23 23 24 -26 -27 27 -29 -30 -31
leaf_value=0.0019834905148247224 -5.4599136798214145e-05 -0.0024937363802961699 0.00079971843715924526 0.00028623690808243194 -0.0016430405871624911 9.0885024785968587e-05 -0.00015974137646971738 -0.0006534992853764668 -0.0012492179558069448 -0.00019456571162020781 -0.0017699193222406196 -0.00016904091015409496 0.00037574696198119386 6.0267621281977901e-05 0.0015145493447214688 0.00065246345132150094 0.00027781519501080074 0.00017007856840668841 0 -0.0015535585463904327 0.0016370077611460598 -6.3392591249627036e-05 0 0 0.0024073166298761352 -0.00023305128594197085 -0.00029065224110307221 -0.0013508772947338325 -0.001401854346956645 -0.00076886411333476992
leaf_weight=34 232 28 154 29 67 452 1274 245 87 1325 21 67 761 3715 63 156 63 311 34 27 77 194 37 23 28 46 32 53 41 32
leaf_count=34 232 28 154 29 67 452 1274 245 87 1325 21 67 761 3715 63 156 63 311 34 27 77 194 37 23 28 46 32 53 41 32
internal_value=1.33259e-07 -1.39748e-05 -0.000233951 2.59456e-05 -9.65721e-05 -0.000322044 -2.04654e-05 -0.000167212 -5.44715e-05 -0.00026136 0.000236088 0.000297955 0.000202853 3.58359e-06 0.000398124 0.000223289 0.000916371 0.000384044 0.000992366 -0.000593918 0.00129134 0.000283923 0.00112869 0.000769095 0.00132342 -0.000753002 -0.00140198 -0.000981534 -0.00188263 -0.00138625
internal_weight=9708 9586 1482 8104 1328 796 6915 697 6401 1412 532 1189 1049 4989 514 388 126 465 140 94 106 955 122 88 51 67 154 85 69 99
internal_count=9708 9586 1482 8104 1328 796 6915 697 6401 1412 532 1189 1049 4989 514 388 126 465 140 94 106 955 122 88 51 67 154 85 69 99
is_linear=0
shrinkage=0.05


Tree=8
num_leaves=31
num_cat=0
split_feature=1 5 4 4 5 3 5 13 13 4 9 13 4 4 10 5 13 12 2 13 4 5 0 9 6 5 13 1 4 4
split_gain=0.0569365 0.0312989 0.0321408 0.0550102 0.0580668 0.037812 0.0311717 0.0302652 0.0234562 0.0217542 0.0179694 0.0181194 0.0175409 0.0168266 0.0162253 0.0150665 0.0144644 0.0142347 0.0116875 0.0105099 0.00963066 0.00929411 0.00631953 0.00431699 0.00906237 0.00431047 0.00414471 0.00183775 0.00163687 0.00134833
threshold=-2.9990897178649898 1.5703697204589846 -1.0000000180025095e-35 1.0000000180025095e-35 -0.030810472555458542 -0.67461490631103505 -0.43489547073841089 0.21117477864027026 -1.6536486744880674 1.3339116573333742 1.0000000180025095e-35 -0.18595351278781888 2.4792006015777592 2.9993033409118657 1.0000000180025095e-35 0.60784453153610241 0.44903260469436651 1.0000000180025095e-35 -9.7542269941186519e-05 -0.9937128722667693 2.6603132486343388 -1.8257510662078855 1.0658138990402224 1.0000000180025095e-35 1.1867895722389223 -2.1116577386856075 0.14601952582597735 -1.0000000180025095e-35 1.2269641160964968 -0.63320976495742787
decision_type=2 2 2 2 2 2 2 2 2 2 2 2 2 2 2 2 2 2 2 2 2 2 2 2 2 2 2 2 2 2
left_child=13 2 6 25 9 -6 17 8 20 -5 11 -10 28 -1 16 -16 -8 21 -19 -12 22 -2 -3 24 26 27 -15 -4 29 -9
right_child=1 7 3 4 5 -7 14 12 10 -11 19 -13 -14 23 15 -17 -18 18 -20 -21 -22 -23 -24 -25 -26 -27 -28 -29 -30 -31
leaf_value=0 0.00072392463562605171 -0.00053677109961013146 -0.00044353351354550514 -5.4094715186458782e-05 0.0015041885913225741 -0.0003633341804671693 0.00017406283790306058 -0.00034934499638393491 0.00059207115002729268 0.00027054007685750554 0.00078627344142679408 0.0015417242953212876 -0.0015234755653152625 0.0012332727161800474 0.0010517722428309629 8.4848349122316721e-05 -4.8662397060903189e-05 -0.0002708615832142588 -0.00140607630075086 -0.00027082285060367548 -0.0012141454761611327 -0.00014339854988289062 0.00056324028231413584 0.0021970273696788698 0.0020175002826430272 -0.0019011194535582686 0.00014785808299551073 -0.0012471326272203004 -0.00047238957714010733 6.1798389772372818e-05
leaf_weight=31 31 25 23 1636 27 1706 2190 23 333 749 33 65 23 20 90 84 1070 67 41 80 22 1002 27 21 23 32 27 41 20 146
leaf_count=31 31 25 23 1636 27 1706 2190 23 333 749 33 65 23 20 90 84 1070 67 41 80 22 1002 27 21 23 32 27 41 20 146
internal_value=7.27129e-08 -1.33328e-05 -4.07891e-05 -0.000140573 -0.000112318 -0.000332753 5.0575e-05 0.000286292 0.000473127 4.68109e-05 0.000595412 0.00075362 -0.000217469 0.00107345 0.00012623 0.000599504 0.000100193 -0.000174923 -0.000725411 1.59838e-05 -0.000337372 -0.000114917 0 0.00141656 0.00114533 -0.00132586 0.000663691 -0.000997943 -4.49519e-05 0
internal_weight=9708 9586 8789 4214 4118 1733 4575 797 585 2385 511 398 212 122 3434 174 3260 1141 108 113 74 1033 52 91 70 96 47 64 189 169
internal_count=9708 9586 8789 4214 4118 1733 4575 797 585 2385 511 398 212 122 3434 174 3260 1141 108 113 74 1033 52 91 70 96 47 64 189 169
is_linear=0
shrinkage=0.05


Tree=9
num_leaves=30
num_cat=0
split_feature=1 12 5 9 2 5 5 3 4 7 13 5 2 13 1 4 4 4 1 5 4 1 14 0 2 0 9 6 13
split_gain=0.0517903 0.0289985 0.0823323 0.0368507 0.0351997 0.0421211 0.0345132 0.0336762 0.0312172 0.0294762 0.0280979 0.0280322 0.0208219 0.0388416 0.0201209 0.0288379 0.021691 0.0185121 0.0192398 0.0153592 0.0152042 0.0130364 0.0115127 0.00878166 0.00469894 0.00444116 0.0037112 0.00802606 0.0036786
threshold=-2.9990897178649898 1.0000000180025095e-35 -1.6608014106750486 1.0000000180025095e-35 4.5487178795156076e-05 -0.9360012114048003 1.2466941475868227 -0.67431014776229847 1.0654593110084536 -1.0000000180025095e-35 -1.613471984863281 -2.040848851203918 0.00039794718031771486 0.0034103838261216883 -1.6284005641937254 0.1562411040067673 1.6064954400062563 2.6603132486343388 -2.2395058870315547 0.4037583619356156 2.9993033409118657 0.0090616187080740946 -0.0063463163096457711 -1.0000000180025095e-35 2.4887067079544072 -2.4627168178558345 1.0000000180025095e-35 1.1867895722389223 0.14601952582597735
decision_type=2 2 2 2 2 2 2 2 2 2 2 2 2 2 2 2 2 2 2 2 2 2 2 2 2 2 2 2 2
left_child=20 3 17 6 9 24 14 22 -7 19 -9 -5 13 -13 16 -16 -2 18 -3 -4 -1 -14 -8 -11 -6 -20 27 28 -22
right_child=1 2 4 11 5 8 7 10 -10 23 -12 12 21 -15 15 -17 -18 -19 25 -21 26 -23 -24 -25 -26 -27 -28 -29 -30
leaf_value=0 3.6253526374343242e-05 -0.0028647985807554923 0.00026119775969059116 0.0016263582471192917 -0.0011259602154170439 1.4366086970741619e-05 0.00024895873085055469 -0.00064199005172435499 -0.00072890826808621318 -0.001520757267470964 0.00034520307447482809 -0.00067811569518790547 -0.00044036439006533745 2.6927539887157304e-06 8.5056783778748738e-05 -0.00017602088562372189 0.00082224560845712614 0 -0.00037235777029842848 0.0014898154238793407 0.0011717628490207647 4.8671438280412555e-05 0.0015337489914912963 -0.00026958916780680392 -0.0023070369508657205 -0.0013800701895988231 0.002087436934530452 0.0019168440256582941 0.00014047886170928886
leaf_weight=31 207 25 491 21 42 477 29 78 197 25 761 473 164 363 3468 1521 162 23 21 28 20 780 77 47 21 85 21 23 27
leaf_count=31 207 25 491 21 42 477 29 78 197 25 761 473 164 363 3468 1521 162 23 21 28 20 780 77 47 21 85 21 23 27
internal_value=6.73913e-08 -1.2706e-05 -0.000216233 2.42061e-05 -8.72832e-05 -0.000319093 8.14705e-05 0.000360316 -0.000199211 0.000197566 0.000250414 -0.000174812 -0.000197512 -0.000379529 3.18205e-05 4.95978e-06 0.000388162 -0.00131159 -0.00154122 0.000332435 0.0010238 -3.36588e-05 0.00120611 -0.000739475 -0.00156082 -0.00120427 0.00135 0.00109175 0.000633237
internal_weight=9708 9586 1482 8104 1328 737 6303 945 674 591 839 1801 1780 836 5358 4989 369 154 131 519 122 944 106 72 63 106 91 70 47
internal_count=9708 9586 1482 8104 1328 737 6303 945 674 591 839 1801 1780 836 5358 4989 369 154 131 519 122 944 106 72 63 106 91 70 47
is_linear=0
shrinkage=0.05


Tree=10
num_leaves=29
num_cat=0
split_feature=1 12 5 9 1 5 3 9 3 13 5 2 13 1 4 4 5 4 1 4 1 2 2 0 9 0 0 4
split_gain=0.0471219 0.026268 0.0744921 0.0332386 0.032377 0.0311629 0.0304523 0.0291543 0.0555436 0.0253833 0.0253191 0.0187714 0.035091 0.0181931 0.0260267 0.0196026 0.0170647 0.0167491 0.0171914 0.0137387 0.0117689 0.0113201 0.0101726 0.00389355 0.0031731 0.00410559 0.00264709 0.0023281
threshold=-2.9990897178649898 1.0000000180025095e-35 -1.6608014106750486 1.0000000180025095e-35 1.8627037405967715 1.2466941475868227 -0.67431014776229847 -1.0000000180025095e-35 -0.6746067702770232 -1.613471984863281 -2.040848851203918 0.00039794718031771486 0.0034103838261216883 -1.6284005641937254 0.1562411040067673 1.4971886277198794 1.019396245479584 2.6603132486343388 -2.2395058870315547 2.9993033409118657 0.0090616187080740946 0.00027918181149289017 0.25302876532077795 -2.4627168178558345 1.0000000180025095e-35 -1.5618652701377866 0.024364773184061054 2.564763188362122
decision_type=2 2 2 2 2 2 2 2 2 2 2 2 2 2 2 2 2 2 2 2 2 2 2 2 2 2 2 2
left_child=19 3 17 5 7 13 21 16 -9 -8 -5 12 -12 15 -15 -2 -4 18 -3 -1 -13 -7 -6 -20 25 -21 -27 -24
right_child=1 2 4 10 22 6 9 8 -10 -11 11 20 -14 14 -16 -17 -18 -19 23 24 -22 -23 27 -25 -26 26 -28 -29
leaf_value=0 5.924091430100161e-06 -0.0027218445752581911 0.00038424069326758689 0.0015452334599242038 -0.0018678499595735519 7.6716525040628869e-05 -0.00060991110627835979 0.0012738294795206263 -0.00032811873190129214 0.00032794405438195677 -0.00064421350289944207 -0.00041835288161491213 2.558129735216547e-06 8.080400445736607e-05 -0.00016722013182220294 0.00074881705074378822 -0.00075804777334002502 0 -0.0003537841077624088 0.0017206001488133523 4.6238021191727362e-05 0.0014295753146908239 -0.00025793296672310808 -0.0013111072358580036 0.0019833130000995345 0.00014570665470791175 0.001052858021524313 -0.0010463475523191312
leaf_weight=31 192 25 431 21 27 24 78 58 718 761 473 164 363 3468 1521 177 34 23 21 21 780 82 38 85 21 22 27 22
leaf_count=31 192 25 431 21 27 24 78 58 718 761 473 164 363 3468 1521 177 34 23 21 21 780 82 38 85 21 22 27 22
internal_value=1.12582e-07 -1.20596e-05 -0.000205776 2.30583e-05 -8.3021e-05 7.74574e-05 0.000342437 -1.55871e-05 -0.00020509 0.000237743 -0.000165932 -0.000187567 -0.000360405 3.02532e-05 4.68669e-06 0.000369098 0.00029527 -0.00124774 -0.00146615 0.000976624 -3.18445e-05 0.00114702 -0.00101564 -0.00114528 0.00128677 0.00104085 0.000697098 -0.000589281
internal_weight=9708 9586 1482 8104 1328 6303 945 1241 776 839 1801 1780 836 5358 4989 369 465 154 131 122 944 106 87 106 91 70 49 60
internal_count=9708 9586 1482 8104 1328 6303 945 1241 776 839 1801 1780 836 5358 4989 369 465 154 131 122 944 106 87 106 91 70 49 60
is_linear=0
shrinkage=0.05


Tree=11
num_leaves=28
num_cat=0
split_feature=1 5 1 5 12 1 2 3 5 4 14 3 4 0 4 8 8 14 4 5 4 3 0 6 6 5 4
split_gain=0.0428914 0.0238551 0.0272725 0.0166576 0.0637354 0.0340171 0.0262239 0.0257701 0.0220891 0.0200644 0.016147 0.0206802 0.0149944 0.014536 0.0124148 0.00989212 0.00739188 0.0216721 0.00867361 0.00571529 0.00898527 0.00763927 0.00544453 0.00361326 0.00733359 0.00311728 0.0027606
threshold=-2.9990897178649898 1.5703697204589846 1.4816283583641054 -1.4515073299407957 1.0000000180025095e-35 -1.6284005641937254 0.00012784179125446829 -0.48144288361072535 -2.040848851203918 1.3339116573333742 1.757709860801697 -0.67433679103851307 1.2269641160964968 0.44465184211730963 2.9993033409118657 -1.0000000180025095e-35 1.0000000180025095e-35 1.0090558528900149 2.9993033409118657 1.7666221857070925 0.23372975736856463 0.27579286694526678 1.4327506422996523 0.049351705238223083 1.1867895722389223 0.67727419734001171 1.3339116573333742
decision_type=2 2 2 2 2 2 2 2 2 2 2 2 2 2 2 2 2 2 2 2 2 2 2 2 2 2 2
left_child=14 2 3 4 8 9 -7 -6 -2 -5 11 13 -12 -3 -1 25 17 -17 -18 20 -13 -21 -15 -16 -25 -4 -27
right_child=1 10 15 5 7 6 -8 -9 -10 -11 12 19 -14 22 23 16 18 -19 -20 21 -22 -23 -24 24 -26 26 -28
leaf_value=0 0.0007710384313176122 0.001991558551192027 -0.00037345697257908697 3.8705399347282418e-05 0.00014399855459751974 -0.00010579397009219739 8.33189375181234e-05 -0.001295132880799917 -0.00011067939261635645 0.00080681731305111372 0.00016224963622103782 0.00088010355030564342 -0.0013493765919772257 0 0.0017267666168363218 -0.00037504397709049839 -0.00039794504100659723 0.00077206130890134558 -0.0015075361036944027 -9.739532234350856e-05 6.0030039316634502e-05 0.00029290819337134697 0.00090005422412122891 0.00012593871403574763 0.0013958845653697595 -0.00066670409341033866 -0.0018212297726933496
leaf_weight=31 91 29 23 158 35 3951 3411 157 312 204 32 75 29 22 34 187 145 52 23 207 73 292 38 25 32 20 20
leaf_count=31 91 29 23 158 35 3951 3411 157 312 204 32 75 29 22 34 187 145 52 23 207 73 292 38 25 32 20 20
internal_value=1.42899e-07 -1.14582e-05 -3.546e-05 -1.42122e-05 -0.000269201 5.10823e-06 -1.78336e-05 -0.0010198 8.22864e-05 0.000478521 0.000250073 0.000316989 -0.000515959 0.0010388 0.000931801 -0.000406187 -0.000306932 -0.000114897 -0.000565133 0.000213763 0.000492651 0.000125996 0.00053539 0.00122668 0.000883311 -0.001007 -0.00130794
internal_weight=9708 9586 8789 8319 595 7724 7362 192 403 362 797 736 61 89 122 470 407 239 168 647 148 499 60 91 57 63 40
internal_count=9708 9586 8789 8319 595 7724 7362 192 403 362 797 736 61 89 122 470 407 239 168 647 148 499 60 91 57 63 40
is_linear=0
shrinkage=0.05


Tree=12
num_leaves=31
num_cat=0
split_feature=1 14 7 5 7 4 4 10 5 4 5 8 1 9 3 14 3 9 14 5 4 6 4 1 6 4 14 3 3 1
split_gain=0.0389636 0.0216047 0.0275377 0.0260484 0.0471765 0.0348263 0.0257691 0.0374729 0.0254898 0.0290428 0.0250112 0.0226198 0.0224656 0.017491 0.0151912 0.0166798 0.0143201 0.0132632 0.0180489 0.0143895 0.0111899 0.0101151 0.014293 0.00968715 0.0096134 0.00916971 0.0120874 0.00905483 0.0101219 0.00508848
threshold=-2.9990897178649898 0.09390787780284883 0.045217942446470268 -1.4515073299407957 -0.43672068417072291 1.3638626337051394 0.58771950006484996 1.0000000180025095e-35 -0.81994956731796254 0.94280615448951732 1.949897885322571 1.0000000180025095e-35 -1.0135016441345213 -1.0000000180025095e-35 -0.47724746167659754 2.9912747144699101 -0.40415963530540461 1.0000000180025095e-35 -0.65584763884544361 -2.217587828636169 2.9993033409118657 -1.2066984772682188 0.37646150588989263 0.063570458441972746 0.2146997004747391 2.0224243402481084 -0.048759134486317628 -0.67465874552726735 -0.67455193400382985 -1.4129391908645628
decision_type=2 2 2 2 2 2 2 2 2 2 2 2 2 2 2 2 2 2 2 2 2 2 2 2 2 2 2 2 2 2
left_child=20 2 12 5 8 11 7 -6 9 -5 -8 13 21 -3 24 -16 27 19 -19 -14 -1 29 -23 -10 -7 26 -18 -4 -29 -2
right_child=1 3 16 4 6 14 10 -9 23 -11 -12 -13 17 -15 15 -17 25 18 -20 -21 -22 22 -24 -25 -26 -27 -28 28 -30 -31
leaf_value=0 -0.00084805710505088177 -0.0002902538932131846 0.001418771153214142 0.00011076618700244614 -0.0001695799077943326 -8.458601496427356e-05 -0.00040902296923379347 0.00047363594972821174 2.4149193141015959e-05 0.00084221822452531516 0.00033514756289465498 1.1727716681714091e-05 -0.00099774658624377736 -0.0016919091831175696 9.1930729110101432e-05 -0.0010861364986394174 7.9713562699842451e-05 -2.8585606951476625e-05 -0.00073321427992286076 -4.5395064776136842e-05 0.0011681815160200348 9.1352718947566508e-05 0.00079045165772058563 -0.0010892454787921578 0.0011473004057765751 -0.00052091153255907864 0.00053818548680172648 -0.00015495357486804921 0.00040192199181054696 0.00012559899224195991
leaf_weight=31 26 35 21 317 991 22 1188 293 741 250 121 36 41 96 74 47 2000 183 197 1638 91 180 135 20 36 57 158 88 575 20
leaf_count=31 26 35 21 317 991 22 1188 293 741 250 121 36 41 96 74 47 2000 183 197 1638 91 180 135 20 36 57 158 88 575 20
internal_value=1.746e-07 -1.08705e-05 5.60656e-05 -9.48947e-05 -5.74749e-05 -0.000511656 -0.000182076 -2.08428e-05 0.000183932 0.000437731 -0.000338314 -0.00103118 -6.77277e-05 -0.00133675 -1.28467e-05 -0.000345273 0.000160266 -0.000132357 -0.000400506 -7.01688e-05 0.00088816 0.000293934 0.00039898 -1.89687e-06 0.000637296 9.69609e-05 0.000114451 0.000361592 0.000324231 -0.000370763
internal_weight=9708 9586 5319 4267 3921 346 2593 1284 1328 567 1309 167 2420 131 179 121 2899 2059 380 1679 122 361 315 761 58 2215 2158 684 663 46
internal_count=9708 9586 5319 4267 3921 346 2593 1284 1328 567 1309 167 2420 131 179 121 2899 2059 380 1679 122 361 315 761 58 2215 2158 684 663 46
is_linear=0
shrinkage=0.05


Tree=13
num_leaves=29
num_cat=0
split_feature=1 12 5 9 2 5 4 5 3 13 5 6 4 13 9 13 13 2 4 1 14 4 5 4 14 2 6 13
split_gain=0.0352333 0.0206171 0.0557942 0.0294161 0.0284013 0.0400439 0.0363402 0.026022 0.0258012 0.0227521 0.0214393 0.0205072 0.0204054 0.0173712 0.0168272 0.0296398 0.0187294 0.014666 0.0138673 0.0151288 0.010897 0.0107843 0.0103287 0.0100307 0.00968345 0.00739477 0.00323211 0.0161927
threshold=-2.9990897178649898 1.0000000180025095e-35 -1.6608014106750486 1.0000000180025095e-35 -7.8045432019280256e-05 -0.74525767564773548 1.0654593110084536 1.2466941475868227 -0.67431014776229847 -1.613471984863281 -2.040848851203918 1.0000000180025095e-35 -0.038976714015007012 0.40588915348052984 -1.0000000180025095e-35 0.13603721559047702 0.14160525053739551 0.00039794718031771486 2.6603132486343388 -2.2395058870315547 -0.0063463163096457711 2.2711855173110966 -1.0743929147720335 2.9993033409118657 -0.46416968107223505 -0.00038361888437066222 0.049351705238223083 0.11252235621213914
decision_type=2 2 2 2 2 2 2 2 2 2 2 2 2 2 2 2 2 2 2 2 2 2 2 2 2 2 2 2
left_child=23 3 18 7 11 21 -7 14 20 -10 -5 22 -13 17 15 -2 -16 -12 19 -3 -9 -6 -4 -1 -15 -21 -25 -28
right_child=1 2 4 10 5 6 -8 8 9 -11 13 12 -14 24 16 -17 -18 -19 -20 25 -22 -23 -24 26 -26 -27 27 -29
leaf_value=0 -0.00028102039911855834 -0.0024588878830697782 -0.00092631095207495757 0.0014162728223383356 -0.0015284360726513762 9.3319563651238793e-05 -0.00070675646405590916 0.00012960674997784596 -0.00058471363074209088 0.00030302186496005041 -0.00038375989175932324 -0.00018295931812198677 0.00084755281125706576 9.396730044722594e-05 0.00015977440249099022 0.00020184991554929134 -7.0381944854559911e-05 -7.9166571020192075e-05 0 -0.00068904149450246138 0.0013710437081439941 -0.00021719075258974977 3.0649314008713004e-05 0.0015822317847324246 0.0010996382263645463 -0.0017796699587017076 -0.00018175417856019477 0.001460210798233854
leaf_weight=31 945 25 31 21 73 501 196 29 78 761 772 62 169 113 2625 473 1315 862 23 80 77 26 270 34 33 26 22 35
leaf_count=31 945 25 31 21 73 501 196 29 78 761 772 62 169 113 2625 473 1315 862 23 80 77 26 270 34 33 26 22 35
internal_value=1.8911e-07 -1.03013e-05 -0.000181943 2.07797e-05 -7.5427e-05 -0.000265827 -0.000128114 7.19729e-05 0.000314144 0.000217482 -0.000156991 0.000204757 0.000560165 -0.000176996 2.87916e-05 -0.000118186 8.23238e-05 -0.000224612 -0.00108392 -0.00128282 0.0010552 -0.00120959 -5.97413e-05 0.00084461 0.000338693 -0.000980841 0.0011098 0.000783045
internal_weight=9708 9586 1482 8104 1328 796 697 6303 945 839 1801 532 231 1780 5358 1418 3940 1634 154 131 106 99 301 122 146 106 91 57
internal_count=9708 9586 1482 8104 1328 796 697 6303 945 839 1801 532 231 1780 5358 1418 3940 1634 154 131 106 99 301 122 146 106 91 57
is_linear=0
shrinkage=0.05


Tree=14
num_leaves=31
num_cat=0
split_feature=1 14 5 4 5 4 5 7 4 2 1 8 2 14 2 12 9 10 7 12 4 6 4 14 14 4 7 4 4 14
split_gain=0.0318687 0.0192343 0.0247216 0.0411102 0.0383587 0.0308414 0.0301657 0.023376 0.0203255 0.0240002 0.0202388 0.0195604 0.0180508 0.0169673 0.0140019 0.0134871 0.0136768 0.0128489 0.0137306 0.0103812 0.0095889 0.00932331 0.00898875 0.0080367 0.0144311 0.0103857 0.0131019 0.0108586 0.0080224 0.00614366
threshold=-2.9990897178649898 0.09390787780284883 -0.030810472555458542 0.033338991925120361 -1.4515073299407957 1.3638626337051394 1.949897885322571 0.045217942446470268 -0.22233689576387403 -0.00011149413330713286 -1.0135016441345213 1.0000000180025095e-35 -2.3710906134510875e-05 1.5193547010421755 0.00012784179125446829 1.0000000180025095e-35 1.0000000180025095e-35 1.0000000180025095e-35 0.13218097388744357 1.0000000180025095e-35 1.4971886277198794 -1.2066984772682188 2.9993033409118657 -0.58904862403869618 -0.95107945799827565 -0.53276553750038136 1.1199566125869753 -0.90540102124214161 -0.16125090420246121 -1.2754303216934202
decision_type=2 2 2 2 2 2 2 2 2 2 2 2 2 2 2 2 2 2 2 2 2 2 2 2 2 2 2 2 2 2
left_child=22 7 4 17 5 11 12 10 9 -6 20 -3 -5 -8 -10 16 -12 28 -19 -7 21 -2 -1 24 29 27 -27 -25 -4 -9
right_child=1 2 3 6 8 19 13 23 14 -11 15 -13 -14 -15 -16 -17 -18 18 -20 -21 -22 -23 -24 25 -26 26 -28 -29 -30 -31
leaf_value=0 -0.00056347042098559344 -0.0012412446235446561 -0.00022885039772993894 -0.00076221645248332253 0.00010304136088540742 0.00027855985161879464 0.00068210659462166184 0.00052680665382133019 7.3300233596506497e-05 -0.00081672640578849323 -3.3149299299200065e-05 8.0432508731920941e-06 -0.00032111526789751224 -0.00068016315976860428 0.00038987136971016908 -0.00085945888233111649 -0.00036883756437711005 0.0011047749105814334 0.00016262108500075952 -0.00051001971040272136 0.0011554199822569348 0.00029116751232928479 0.0010543928430606839 -5.5826327289757752e-05 -0.00010694951335008742 4.1335934412121778e-05 0.00042260814776064366 0.00059842823180948678 0.00030567573180292283 0.00013991878555487557
leaf_weight=31 34 131 190 327 158 113 99 134 1254 123 1618 36 948 28 500 61 380 63 121 66 30 297 91 72 659 811 322 297 110 604
leaf_count=31 34 131 190 327 158 113 99 134 1254 123 1618 36 948 28 500 61 380 63 121 66 30 297 91 72 659 811 322 297 110 604
internal_value=1.69912e-07 -9.79443e-06 -8.90897e-05 -0.000224408 1.70488e-05 -0.000468345 -0.000362136 5.33479e-05 0.000100816 -0.00029074 -6.06427e-05 -0.00095705 -0.000436231 0.000361937 0.000164977 -0.000122039 -9.82528e-05 0.000169379 0.000499002 0 0.00028258 0.000195756 0.000803273 0.000149366 6.05929e-05 0.000230263 0.000151914 0.000464004 -2.45073e-05 0.000213585
internal_weight=9708 9586 4267 1886 2381 346 1402 5319 2035 281 2420 167 1275 127 1754 2059 1998 484 184 179 361 331 122 2899 1397 1502 1133 369 300 738
internal_count=9708 9586 4267 1886 2381 346 1402 5319 2035 281 2420 167 1275 127 1754 2059 1998 484 184 179 361 331 122 2899 1397 1502 1133 369 300 738
is_linear=0
shrinkage=0.05


Tree=15
num_leaves=29
num_cat=0
split_feature=1 5 13 1 13 14 4 4 3 5 3 14 4 4 13 14 14 14 4 4 4 2 0 14 13 6 3 14
split_gain=0.0288215 0.017649 0.02319 0.0223618 0.0160202 0.0147253 0.0194022 0.0134327 0.0183713 0.0251294 0.0170633 0.0165658 0.0202795 0.0126741 0.0123218 0.0121639 0.0113403 0.0288253 0.0115896 0.008232 0.00805064 0.00575007 0.00515181 0.00298967 0.00297147 0.00529399 0.00210386 0.00144353
threshold=-2.9990897178649898 1.5703697204589846 0.21117477864027026 1.4816283583641054 -1.6536486744880674 -0.38260284066200251 0.71323916316032421 -0.53276553750038136 -0.67456540465354908 0.66356971859931957 -0.67446053028106678 -0.56644445657730091 -0.87429898977279652 2.4792006015777592 -1.3928913474082945 -0.89000707864761341 1.757709860801697 1.0090558528900149 0.84005585312843334 2.6603132486343388 2.9993033409118657 1.4920801520347597 0.96221390366554271 -0.91265419125556935 -0.095371741801500307 1.1867895722389223 2.6806274652481084 -1.0268760323524473
decision_type=2 2 2 2 2 2 2 2 2 2 2 2 2 2 2 2 2 2 2 2 2 2 2 2 2 2 2 2
left_child=20 3 4 7 19 21 -7 11 9 -9 -10 15 -13 23 -5 -2 17 -16 -18 22 -1 -6 -3 27 -22 -26 -25 -4
right_child=1 2 13 14 5 6 -8 8 10 -11 -12 12 -14 -15 16 -17 18 -19 -20 -21 24 -23 -24 26 25 -27 -28 -29
leaf_value=0 0.00010098183349430672 -0.00047580506458971459 0 -0.0015204425951680107 0.00031052905116228511 0.0013530370583872738 0.00043978336649950171 0.00017336408137661217 -0.00039289822198222235 0.0018680446783154272 -5.0538675959342099e-05 -0.00016910876524433519 0.00040589959979154275 -0.0013390565587514747 -0.00028095919310076422 -0.00017339793125927276 8.3154801957177271e-05 0.0014186699061298162 -0.00095167060631836341 -0.0010998327045357215 0.0015901246950371104 -0.0002684393554653757 0.00051500460307475735 2.5756574118370373e-05 0.00027588891969478486 0.0012896697651057884 -0.00036659795050158892 0.00040937506528119952
leaf_weight=31 1052 24 30 23 134 85 233 324 396 24 5037 195 636 23 287 655 31 27 102 22 24 59 28 38 38 29 87 34
leaf_count=31 1052 24 30 23 134 85 233 324 396 24 5037 195 636 23 287 655 31 27 102 22 24 59 28 38 38 29 87 34
internal_value=2.10739e-07 -9.25262e-06 0.000215654 -2.99331e-05 0.000379615 0.000481053 0.000691927 -1.06655e-05 -5.30298e-05 0.000297673 -7.59561e-05 8.48452e-05 0.00026796 -0.000224979 -0.000365613 -2.83904e-06 -0.000300437 -0.00012665 -0.00069174 -0.000286949 0.000763965 0.000120565 9.65931e-06 -7.58607e-05 0.0010017 0.00075261 -0.000227368 0.000180965
internal_weight=9708 9586 797 8789 585 511 318 8319 5781 348 5433 2538 831 212 470 1707 447 314 133 74 122 193 52 189 91 67 125 64
internal_count=9708 9586 797 8789 585 511 318 8319 5781 348 5433 2538 831 212 470 1707 447 314 133 74 122 193 52 189 91 67 125 64
is_linear=0
shrinkage=0.05


Tree=16
num_leaves=31
num_cat=0
split_feature=1 12 5 3 8 5 3 2 1 4 3 2 14 7 4 5 13 5 4 14 14 13 4 1 5 6 0 7 13 2
split_gain=0.0262206 0.01695 0.0461694 0.0248186 0.0342307 0.0364872 0.0300029 0.0225565 0.0364664 0.0206883 0.0261826 0.0203407 0.0199375 0.0277674 0.0147444 0.0270099 0.0153452 0.0150114 0.0146593 0.0251012 0.0163562 0.0137033 0.0122964 0.0135746 0.0119401 0.00785693 0.0107552 0.0110159 0.00671933 0.00657921
threshold=-2.9990897178649898 1.0000000180025095e-35 -1.6608014106750486 -0.6746067702770232 -1.0000000180025095e-35 -0.6738409399986266 -0.6744675040245055 0.00012784179125446829 -1.6284005641937254 2.4193181991577153 2.8789883852005009 0.00012784179125446829 0.09390787780284883 -0.33835905790328974 0.30734299123287206 1.9067646861076357 -0.54320091009140004 -0.058885090053081506 -0.22233689576387403 -0.048759134486317628 0.19422736018896106 0.093329031020402922 2.6603132486343388 -2.2395058870315547 -1.3182949423789976 0.049351705238223083 -2.005935430526733 -0.87676700949668873 0.18878958374261859 -0.00038361888437066222
decision_type=2 2 2 2 2 2 2 2 2 2 2 2 2 2 2 2 2 2 2 2 2 2 2 2 2 2 2 2 2 2
left_child=25 7 22 11 5 -5 -6 8 9 21 -11 -4 24 -14 18 17 -17 -16 20 -20 -9 -2 23 -3 -10 -1 28 -28 -27 -25
right_child=1 2 3 4 6 -7 -8 14 12 10 -12 -13 13 -15 15 16 -18 -19 19 -21 -22 -23 -24 29 -26 26 27 -29 -30 -31
leaf_value=0.0014098018642532725 0 -0.002287100115326231 0.00028257692200392485 0.0011414588274183731 -0.0011174183902881991 -3.8557816229536761e-06 -0.00019689784081002913 0.00012262910117784626 0.00035889008476242917 0.00043177854948847736 0.0023887928861288099 0.0020784681737024751 -8.1412179798239366e-05 -0.0005788646458062184 0.00019106357787762238 8.8066738248082749e-05 0.00086426550415202017 -0.00023780224256446099 8.1313225501647749e-05 0.0006417497126618906 -0.00073373536335461095 0.00064885265438142535 0 -0.00060842190396510703 -6.5803894659446034e-05 0.00021986799345588456 -0.00086647718260973814 0.0006853765133312162 0.0016402437594505933 -0.0016384627867575855
leaf_weight=34 308 25 83 89 103 298 734 1633 177 63 26 21 707 481 262 163 114 851 429 394 57 114 23 80 2325 21 23 22 22 26
leaf_count=34 308 25 83 89 103 298 734 1633 177 63 26 21 707 481 262 163 114 851 429 394 57 114 23 80 2325 21 23 22 22 26
internal_value=2.25166e-07 -8.7892e-06 -0.000164441 -6.7366e-05 -0.00013209 0.000253191 -0.000313222 1.93675e-05 -6.06583e-05 0.000333925 0.00103258 0.00067006 -0.000115982 -0.000284942 0.000106144 -2.29378e-05 0.000416635 -0.000134597 0.000178536 0.000352675 9.22457e-05 0.000180549 -0.00098503 -0.00117267 -3.47538e-05 0.000728714 0.000436523 -5.23806e-05 0.0010057 -0.000885301
internal_weight=9708 9586 1482 1328 1224 387 837 8104 4201 511 89 104 3690 1188 3903 1390 277 1113 2513 823 1690 422 154 131 2502 122 88 45 43 106
internal_count=9708 9586 1482 1328 1224 387 837 8104 4201 511 89 104 3690 1188 3903 1390 277 1113 2513 823 1690 422 154 131 2502 122 88 45 43 106
is_linear=0
shrinkage=0.05


Tree=17
num_leaves=31
num_cat=0
split_feature=1 9 13 9 13 9 12 5 13 14 5 1 14 4 13 3 13 6 14 13 14 3 4 13 3 6 4 14 6 3
split_gain=0.023803 0.0166799 0.0339632 0.0377737 0.0438668 0.0251388 0.0528101 0.032702 0.0237369 0.0228993 0.022776 0.0227298 0.0304796 0.0262599 0.0227342 0.0264048 0.0225904 0.0209688 0.0205309 0.0201564 0.0181561 0.0160362 0.015613 0.0123247 0.0115098 0.0095543 0.00936035 0.00747468 0.00699465 0.0105243
threshold=-2.9990897178649898 1.0000000180025095e-35 0.57915547490119945 -1.0000000180025095e-35 -0.22801481932401654 -1.0000000180025095e-35 1.0000000180025095e-35 -0.92287626862525929 0.13603721559047702 -0.47385679185390467 0.81515431404113781 -1.6284005641937254 2.4165596961975102 1.8532029986381533 0.22534418851137164 -0.67460039258003224 -1.613471984863281 -0.35600408911705012 0.09874859452247621 0.036642197519540794 -0.81716942787170399 2.8622620105743413 1.0224711894989016 0.32879538834095007 -0.67441254854202259 1.450960695743561 -0.055013846606016152 -0.97293725609779347 0.049351705238223083 -0.40415963530540461
decision_type=2 2 2 2 2 2 2 2 2 2 2 2 2 2 2 2 2 2 2 2 2 2 2 2 2 2 2 2 2 2
left_child=28 2 3 8 16 10 27 -8 9 -2 17 12 19 14 20 -16 -5 -4 -6 25 -13 -21 -10 24 -15 -3 -12 -7 -1 -30
right_child=1 11 5 4 18 6 7 -9 22 -11 26 13 -14 23 15 -17 -18 -19 -20 21 -22 -23 -24 -25 -26 -27 -28 -29 29 -31
leaf_value=0.001339415337376219 6.1228956170859684e-05 0 -9.2812450232234855e-05 -0.00023828744529485937 0.0007765887160565432 0.00018018334393992951 -0.0010493390807256549 -0.00017971944809896045 4.707284102415496e-05 -0.00041635005736623319 0 6.3101172294891005e-05 0.0020130774125120747 0.0006455477466748707 0.0012040573555534683 1.4391014037309291e-05 0.00015951320363436958 0.00056713837515200128 0.00027396546526806684 0.0018896595777371577 -0.00037637077382204041 0 0.00081846389379122372 -0.0012647385213740518 -0.00059744734344425489 -0.0011780817039488325 -0.00097700979699509713 -0.0001154293075211873 -0.00030244670723358143 0.00081167368773863054
leaf_weight=34 395 73 194 426 393 259 261 198 324 651 36 315 26 20 50 760 2093 294 466 24 831 20 85 69 125 22 54 1122 29 59
leaf_count=34 395 73 194 426 393 259 261 198 324 651 36 315 26 20 50 760 2093 294 466 24 831 20 85 69 125 22 54 1122 29 59
internal_value=2.87952e-07 -8.2886e-06 2.88594e-05 0.00010568 0.000197678 -0.000123651 -0.000214594 -0.000679716 -0.00010619 -0.000233618 0.000161528 -0.000124715 0.000436738 -0.000168567 -0.000109507 9.09832e-05 9.12434e-05 0.000299676 0.000506862 0.000123286 -0.000253395 0.00101953 0.000213579 -0.000696556 -0.000408601 -0.000265833 -0.000559531 -5.81738e-05 0.00069439 0.000416164
internal_weight=9708 9586 7251 4833 3378 2418 1840 459 1455 1046 578 2335 165 2170 1956 810 2519 488 859 139 1146 44 409 214 145 95 90 1381 122 88
internal_count=9708 9586 7251 4833 3378 2418 1840 459 1455 1046 578 2335 165 2170 1956 810 2519 488 859 139 1146 44 409 214 145 95 90 1381 122 88
is_linear=0
shrinkage=0.05


Tree=18
num_leaves=26
num_cat=0
split_feature=1 5 1 14 3 5 1 4 2 5 1 4 4 8 0 4 4 14 3 0 6 4 5 0 6
split_gain=0.0214806 0.0151518 0.0167052 0.0142842 0.0200141 0.0139155 0.0135486 0.0130307 0.0126811 0.0238878 0.021709 0.0198851 0.0160839 0.00779889 0.00657338 0.00650461 0.00648077 0.0395644 0.0110912 0.0057064 0.00650705 0.00443432 0.00247882 0.00241982 0.00321038
threshold=-2.9990897178649898 1.5149815082550051 1.4816283583641054 1.757709860801697 -0.67431014776229847 2.3959654569625859 2.9996900558471684 1.2269641160964968 0.00027918181149289017 -1.4515073299407957 0.69134807586669933 2.3693041801452641 1.8983567953109743 -1.0000000180025095e-35 -1.4325438141822813 2.9993033409118657 0.67237818241119396 -0.16386862099170682 0.46043404936790472 2.0292401313781743 1.1187922358512881 0.76058280467987072 0.67727419734001171 -2.9992878437042232 0.049351705238223083
decision_type=2 2 2 2 2 2 2 2 2 2 2 2 2 2 2 2 2 2 2 2 2 2 2 2 2
left_child=15 2 8 4 5 6 -3 -5 10 -10 11 -2 -11 22 -12 -1 17 -6 -18 21 -21 -15 -4 -17 -25
right_child=1 3 13 7 16 -7 -8 -9 9 12 14 -13 -14 19 -16 23 18 -19 -20 20 -22 -23 -24 24 -26
leaf_value=0 -6.2230786345305906e-05 0.00075321342055847821 -0.00030100523748479531 0.00014320827580977137 9.5486818732843444e-05 -6.767278186140537e-05 0.0023438698141212636 -0.0011943446775291816 -0.0013570586268721139 0.00010388721874439805 5.0485143235763049e-05 0.00044457670444438148 -0.00044324735375554804 0.0001753065581235864 -0.000725160819547484 0.0014804644700594971 -0.00036402492052835207 0.0016508072515698221 0.00024000371677844291 -0.0013273477206934251 -9.2103056155158928e-05 -0.0002505077908993353 -0.0011603259070501156 0.0010698272589199657 0.00026910011194498495
leaf_weight=31 4667 56 23 33 350 23 22 34 29 3052 26 201 139 73 155 20 133 47 176 25 27 258 37 32 39
leaf_count=31 4667 56 23 33 350 23 22 34 29 3052 26 201 139 73 155 20 133 47 176 25 27 258 37 32 39
internal_value=3.26597e-07 -7.80789e-06 -2.7969e-05 0.000190287 0.00025061 0.000913806 0.0012351 -0.000498649 -1.16289e-05 6.55309e-05 -6.13329e-05 -4.07868e-05 7.9264e-05 -0.000327293 -0.000599951 0.000659709 0.000152135 0.000286099 -1.19102e-05 -0.000235162 -0.000734706 -0.000149033 -0.000873077 0.000872923 0.000665677
internal_weight=9708 9586 8712 874 807 101 78 67 8269 3220 5049 4868 3191 443 181 122 706 397 309 383 52 331 60 91 71
internal_count=9708 9586 8712 874 807 101 78 67 8269 3220 5049 4868 3191 443 181 122 706 397 309 383 52 331 60 91 71
is_linear=0
shrinkage=0.05


Tree=19
num_leaves=31
num_cat=0
split_feature=1 9 13 9 13 2 9 12 5 13 8 14 1 14 4 13 2 3 5 13 3 4 13 3 4 1 4 0 2 4
split_gain=0.0195422 0.0150354 0.0303531 0.0336764 0.0394616 0.0282857 0.0230626 0.0467497 0.029281 0.0214631 0.0206037 0.020514 0.0203897 0.0275177 0.0227246 0.0207952 0.0251335 0.0242176 0.0198935 0.0182776 0.0152511 0.014107 0.0105855 0.0100871 0.00808037 0.00739146 0.00704834 0.00676392 0.00648625 0.00588603
threshold=-2.9990897178649898 1.0000000180025095e-35 0.57915547490119945 -1.0000000180025095e-35 -0.22801481932401654 2.6322380304336552 -1.0000000180025095e-35 1.0000000180025095e-35 -0.92287626862525929 0.13603721559047702 1.0000000180025095e-35 -0.47385679185390467 -1.6284005641937254 2.4165596961975102 1.8532029986381533 0.22534418851137164 9.774772479431705e-05 -0.67460039258003224 0.81515431404113781 0.053851705044507987 2.8622620105743413 1.0224711894989016 0.32879538834095007 -0.67441254854202259 -0.055013846606016152 -1.0306683182716367 0.84005585312843334 1.001389265060425 0.54185184836387645 2.9993033409118657
decision_type=2 2 2 2 2 2 2 2 2 2 2 2 2 2 2 2 2 2 2 2 2 2 2 2 2 2 2 2 2 2
left_child=29 2 3 9 10 -6 18 25 -9 11 -5 -2 13 19 15 16 -14 -17 27 26 -21 -11 23 -16 -20 -8 -3 -4 -24 -1
right_child=1 12 6 4 5 -7 7 8 -10 21 -12 -13 14 -15 22 17 -18 -19 24 20 -22 -23 28 -25 -26 -27 -28 -29 -30 -31
leaf_value=0 5.8022009421133708e-05 -0.0010836939148586289 0.00020355171932523631 5.3638429094089813e-05 0.00036238711753440895 0.0012159057074829433 0.00039577685691268233 -0.00099096583339321111 -0.000167220192147428 4.5719406073373027e-05 0.00073580668093608788 -0.00039373927937912773 -0.00054441295692073176 0.0019115898301002646 0.00060097181037628089 0.0011531491479422381 -5.6422572862363824e-05 1.3653691588647488e-05 0 0.0018598181954150668 0 0.00077952848385876017 -0.0015817530652233397 -0.00055954746110052926 -0.00090436163215375026 -8.7009036848605215e-05 0 0.00076651861143262339 -0.00041520842936447689 0.00083209996427246211
leaf_weight=31 395 20 421 2402 743 116 83 261 198 324 117 651 431 26 20 50 715 760 36 23 20 85 43 125 54 1298 76 67 26 91
leaf_count=31 395 20 421 2402 743 116 83 261 198 324 117 651 431 26 20 50 715 760 36 23 20 85 43 125 54 1298 76 67 26 91
internal_value=3.15991e-07 -7.43089e-06 2.78253e-05 0.000100462 0.000187341 0.000480621 -0.000116323 -0.000203463 -0.000641128 -9.9521e-05 8.63295e-05 -0.000220757 -0.000117983 0.000413564 -0.00015956 -0.000104507 -0.000242148 8.7146e-05 0.000156746 0.000114792 0.000983021 0.000204411 -0.000650935 -0.000382088 -0.000516308 -5.61694e-05 -0.000248383 0.000286037 -0.00117901 0.000629255
internal_weight=9708 9586 7251 4833 3378 859 2418 1840 459 1455 2519 1046 2335 165 2170 1956 1146 810 578 139 43 409 214 145 90 1381 96 488 69 122
internal_count=9708 9586 7251 4833 3378 859 2418 1840 459 1455 2519 1046 2335 165 2170 1956 1146 810 578 139 43 409 214 145 90 1381 96 488 69 122
is_linear=0
shrinkage=0.05


Tree=20
num_leaves=31
num_cat=0
split_feature=1 9 5 3 3 2 3 13 13 13 14 3 10 14 5 9 6 6 5 13 5 2 13 6 0 13 6 14 3 6
split_gain=0.0176878 0.0199386 0.0195254 0.0182656 0.0174074 0.0396761 0.0203215 0.0167619 0.016101 0.01569 0.0362006 0.0173754 0.0154214 0.0254502 0.0183897 0.0153859 0.0178825 0.0142156 0.0138682 0.0134868 0.0163571 0.0116641 0.0104307 0.0309655 0.0299474 0.0155366 0.0255033 0.0535825 0.0153137 0.0152854
threshold=-1.6284005641937254 1.0000000180025095e-35 1.2466941475868227 -0.67431014776229847 -0.67460039258003224 0.00027918181149289017 -0.6745106279850005 -1.613471984863281 0.57915547490119945 -0.034148516133427613 0.28165069222450262 -0.67440304160118092 1.0000000180025095e-35 1.4188663363456728 -1.2865498065948484 -1.0000000180025095e-35 0.3810552060604096 -0.34743221104145044 0.78732740879058849 0.0054245274513959893 0.86935266852378856 0.13175973296165469 0.57915547490119945 0.73269054293632518 -0.2905732244253158 0.10510710626840593 0.92241975665092479 2.4165596961975102 -0.345646321773529 0.056921700015664108
decision_type=2 2 2 2 2 2 2 2 2 2 2 2 2 2 2 2 2 2 2 2 2 2 2 2 2 2 2 2 2 2
left_child=22 2 12 15 5 -3 19 -5 -9 10 -8 -11 13 21 -15 -4 -17 -14 -19 -6 -21 -2 25 24 29 26 27 28 -1 -24
right_child=1 4 3 7 6 -7 9 8 -10 11 -12 -13 17 14 -16 16 -18 18 -20 20 -22 -23 23 -25 -26 -27 -28 -29 -30 -31
leaf_value=-1.0550806816233661e-05 -4.5113060874210756e-05 0 -0.00028854564801212445 -0.00054155852117105567 -0.0020211841142910559 0.002095164465692149 -0.00011029403180413426 0.00036177754619673105 -0.00013422795765084293 0.00081855448211423274 -0.00091660160645690592 -7.5012897648762605e-05 -5.0498872542631873e-05 -0.0012151944495311555 -0.00024832448643109789 0.0021836275320577078 0.00058443629511622109 0.00096806100610286505 -0.0002283802940708184 -0.00023163975131120168 -0.0017323651282238268 0.00012065305157380119 -0.00057524061252661133 0.00069643033211787069 0.00012463331277440902 0.00087315621240872325 -0.00036113264782071814 0.0029706163977521317 0.00071906386331913096 -0.002201961273027932
leaf_weight=172 3442 125 21 78 20 27 533 568 221 57 193 1092 99 57 487 29 61 110 27 99 24 1532 44 90 89 114 134 20 116 27
leaf_count=172 3442 125 21 78 20 27 533 568 221 57 193 1092 99 57 487 29 61 110 27 99 24 1532 44 90 89 114 134 20 116 27
internal_value=3.56621e-07 -1.96937e-05 2.2468e-05 0.000229138 -0.000151642 0.00035859 -0.00019132 0.000148282 0.000219678 -0.000145842 -0.000328135 -2.84751e-05 -1.22266e-05 -2.95771e-05 -0.00035433 0.000837824 0.00112842 0.000382781 0.000714027 -0.000769885 -0.000545366 5.44126e-06 0.000224895 -3.43541e-05 -0.00046113 0.000345952 0.000204237 0.000458344 0.000274717 -0.00123015
internal_weight=9708 8902 6732 978 2170 152 2018 867 789 1875 726 1149 5754 5518 544 111 90 236 137 143 123 4974 806 250 160 556 442 308 288 71
internal_count=9708 8902 6732 978 2170 152 2018 867 789 1875 726 1149 5754 5518 544 111 90 236 137 143 123 4974 806 250 160 556 442 308 288 71
is_linear=0
shrinkage=0.05


Tree=21
num_leaves=31
num_cat=0
split_feature=1 14 5 4 5 4 5 4 2 13 13 7 3 14 1 14 9 1 6 4 3 14 5 13 7 2 2 14 13 6
split_gain=0.0164135 0.0131706 0.0223514 0.0337485 0.0301065 0.0265543 0.0234248 0.0183508 0.0201692 0.0181762 0.0201347 0.0263236 0.0240674 0.0201709 0.0168233 0.015405 0.0152628 0.0151307 0.0146733 0.0278098 0.0130204 0.0129235 0.0111765 0.0105979 0.0105575 0.00889162 0.00876834 0.00789546 0.00581834 0.00518918
threshold=-2.9990897178649898 0.09390787780284883 -0.030810472555458542 0.023612311109900478 -1.4515073299407957 2.0224243402481084 1.949897885322571 -0.22233689576387403 -0.00011149413330713286 0.048031579703092582 -0.737318456172943 -0.33835905790328974 2.9991557598114018 -0.58904862403869618 -1.0750574469566343 0.15921594202518466 1.0000000180025095e-35 0.29261980950832372 -0.17950730770826337 0.71323916316032421 -0.4650853276252746 -0.90558007359504689 2.7909251451492314 -0.84439694881439198 0.97406572103500377 -0.34256158769130701 -0.12437971308827399 0.028563889674842361 0.11906571686267854 0.049351705238223083
decision_type=2 2 2 2 2 2 2 2 2 2 2 2 2 2 2 2 2 2 2 2 2 2 2 2 2 2 2 2 2 2
left_child=29 9 4 24 5 16 15 8 -6 10 20 12 -12 -13 18 -5 -3 -9 -11 -20 26 28 -8 -22 -4 -7 -2 -23 -16 -1
right_child=1 2 3 6 7 25 22 17 -10 14 11 13 -14 -15 21 -17 -18 -19 19 -21 23 27 -24 -25 -26 -27 -28 -29 -30 -31
leaf_value=0.0011347850777479588 0.00019580846392309913 -0.00086819233358806543 0.00026244673126469886 -0.0010718529881078712 9.0747481566200928e-05 -0.00013006923010789296 0.00054000213456121605 0.00010993314534655483 -0.0007513346226889889 -0.00013743394248317268 4.9356334051660336e-05 0.00010839418618385419 -0.0010055873103773131 0.00050977245013314042 -0.00040895570602856538 -0.00034181865185870506 9.451839337943236e-05 0.00058312503971952919 0.00022431485230575674 0.0021350993831736548 0.00010406735385504851 -0.0001984134029256156 -0.0006621555025560482 -0.00038641962360978104 -0.00038068100175304591 0.00079219692054520766 -0.00062625639352370532 0.00036890192408714202 0.00012772211720807095 0.00033210143210918498
leaf_weight=34 37 202 404 81 158 52 105 1560 123 59 448 550 61 787 53 1201 46 194 66 29 788 1470 22 127 73 46 137 61 646 88
leaf_count=34 37 202 404 81 158 52 105 1560 123 59 448 550 61 787 53 1201 46 194 66 29 788 1470 22 127 73 46 137 61 646 88
internal_value=2.37975e-07 -6.84022e-06 -7.25004e-05 -0.000201244 2.84296e-05 -0.000401257 -0.000324891 0.000102724 -0.000269024 4.53638e-05 0.000128926 0.000229713 -7.22463e-05 0.000346538 -5.64633e-05 -0.000389934 -0.000679563 0.000163711 0.000446122 0.000834725 -3.96291e-05 -9.23012e-05 0.000311898 3.32393e-05 0.000158752 0.000277517 -0.00043708 -0.000174166 8.34272e-05 0.000576657
internal_weight=9708 9586 4267 1886 2381 346 1409 2035 281 5319 2935 1846 509 1337 2384 1282 248 1754 154 95 1089 2230 127 915 477 98 174 1531 699 122
internal_count=9708 9586 4267 1886 2381 346 1409 2035 281 5319 2935 1846 509 1337 2384 1282 248 1754 154 95 1089 2230 127 915 477 98 174 1531 699 122
is_linear=0
shrinkage=0.05


Tree=22
num_leaves=31
num_cat=0
split_feature=13 9 9 13 2 14 13 3 3 3 2 13 3 14 7 13 14 3 3 3 4 7 4 7 8 14 14 13 6 6
split_gain=0.0109338 0.0232629 0.027795 0.036872 0.0245501 0.0296556 0.0206815 0.0194459 0.0237891 0.0472095 0.0184432 0.0184202 0.0265709 0.0208866 0.0183315 0.0171854 0.0161809 0.0159823 0.033801 0.0637474 0.0202787 0.0274339 0.0157242 0.0283271 0.0149577 0.0133805 0.0125296 0.018843 0.0117995 0.0114032
threshold=0.57915547490119945 1.0000000180025095e-35 -1.0000000180025095e-35 -0.22801481932401654 2.6322380304336552 -0.12738159298896787 0.4168305397033692 -0.6746067702770232 -0.67449465394020069 -0.67456540465354908 0.00012784179125446829 -1.613471984863281 -0.67449465394020069 0.55448061227798473 -0.041070222854614251 0.13603721559047702 -0.47385679185390467 -0.52392917871475209 -0.39786612987518305 -0.48144288361072535 1.3339116573333742 -0.29395307600498194 2.9149836301803593 -0.45182563364505762 -1.0000000180025095e-35 -0.099347166717052446 -0.81716942787170399 -0.0076131843961775294 -0.20927287638187406 -0.1346992030739784
decision_type=2 2 2 2 2 2 2 2 2 2 2 2 2 2 2 2 2 2 2 2 2 2 2 2 2 2 2 2 2 2
left_child=1 2 15 11 -5 -6 22 10 9 14 -2 13 -13 -4 -9 16 28 20 19 -19 -10 -22 26 -24 -20 -18 -3 -28 -1 -11
right_child=7 6 3 4 5 -7 -8 8 17 29 -12 12 -14 -15 -16 -17 25 18 24 -21 21 -23 23 -25 -26 -27 27 -29 -30 -31
leaf_value=-0.00013505863296600922 0.00022339583153329706 7.8944638576095304e-05 -7.3452309155195246e-05 0.00034509812863878659 0.0027417122286196465 0.00069529233159019836 0.0012960248216875121 0.00060849773099797173 0 -0.0007028323353309321 0.0019273363290500613 0.0012567032317565639 0.00010690473485031889 -0.0010892364088448618 -0.00093344870478671404 0.00018405079745001453 -0.00076671263098926064 0 0.00029907983830677312 -0.0026150829205687227 0.0020632182097160934 6.2984689326315069e-05 0.0016335088854964016 -9.6039945081203421e-05 -0.0001056388338802368 -0.00021729319699749007 -0.00044895620580438832 -5.5271971989714911e-05 0.00043819444640008583 -0.0022118040432036142
leaf_weight=260 85 344 370 746 24 92 25 56 133 26 21 52 2050 60 29 413 150 61 251 38 34 40 34 70 2296 521 633 616 135 43
leaf_count=260 85 344 370 746 24 92 25 56 133 26 21 52 2050 60 29 413 150 61 251 38 34 40 34 70 2296 521 633 616 135 43
internal_value=2.77786e-07 3.69902e-05 9.31028e-05 0.000172178 0.000455194 0.00114123 -0.000120346 -7.6695e-05 -0.000100872 -0.000707805 0.000585292 7.48333e-05 0.000136567 -0.000221113 5.27879e-05 -8.66688e-05 -0.000193902 -6.72222e-05 -0.00010106 -0.00100901 0.00035316 0.00101654 -0.000142723 0.000445876 -6.47683e-05 -0.000343888 -0.000182732 -0.000256805 5.45657e-05 -0.00168033
internal_weight=9708 6595 4873 3394 862 116 1722 3113 3007 154 106 2532 2102 430 85 1479 1066 2853 2646 99 207 74 1697 104 2547 671 1593 1249 395 69
internal_count=9708 6595 4873 3394 862 116 1722 3113 3007 154 106 2532 2102 430 85 1479 1066 2853 2646 99 207 74 1697 104 2547 671 1593 1249 395 69
is_linear=0
shrinkage=0.05


Tree=23
num_leaves=31
num_cat=0
split_feature=1 4 14 2 4 13 4 7 0 14 10 13 9 13 13 2 1 1 1 4 13 9 13 14 13 4 2 1 1 13
split_gain=0.0156451 0.0323744 0.0225656 0.01765 0.0217838 0.0172401 0.0151562 0.0330978 0.0238862 0.0210102 0.0157213 0.0172761 0.0146763 0.0206102 0.0139215 0.0127673 0.0123463 0.0118275 0.011327 0.0111714 0.0153258 0.016396 0.0127978 0.00980879 0.0308098 0.0100016 0.009779 0.00951528 0.00807917 0.00799673
threshold=-1.6284005641937254 1.3339116573333742 0.90720501542091381 0.00012784179125446829 2.3300133943557744 0.57915547490119945 -0.081220027059316621 -0.33835905790328974 -0.062372647225856774 -1.0000000180025095e-35 1.0000000180025095e-35 -0.35965685546398157 1.0000000180025095e-35 -0.737318456172943 -1.2300968170166013 -0.34256158769130701 -0.231184147298336 -0.54901686310768116 -0.10090108588337897 2.9149836301803593 0.024573852308094505 1.0000000180025095e-35 -0.22801481932401654 0.21367417275905612 0.11528640612959863 2.4193181991577153 -0.00040688435547053809 1.9140247702598574 -2.2395058870315547 -0.69259005784988392
decision_type=2 2 2 2 2 2 2 2 2 2 2 2 2 2 2 2 2 2 2 2 2 2 2 2 2 2 2 2 2 2
left_child=1 2 -1 6 5 12 10 8 17 -9 11 29 13 -5 -11 -12 -10 -8 -14 27 22 -22 -21 24 -3 -25 28 -6 -4 -2
right_child=3 23 26 4 19 -7 7 9 16 14 15 -13 18 -15 -16 -17 -18 -19 -20 20 21 -23 -24 25 -26 -27 -28 -29 -30 -31
leaf_value=0.00012919327631589407 4.4474903628938096e-05 -2.3085326000587951e-05 -0.0013093181187044944 -3.7549441227769391e-05 -0.0011429954529258428 -5.7751192919500467e-05 -0.00010981761644393567 -1.8892970544789076e-05 0.00030509872246783584 2.9084663003873765e-06 9.6698311870023365e-05 -0.00013104217091564589 -0.00044088437123006736 0.00033059531109098689 -0.0006658737093944672 0.0014907133600550093 -0.00073540652509002905 -0.00068323640744167745 6.0979596473882466e-05 -2.5634119151307763e-05 -0.00014203792363633776 -0.0017582985535728709 0.0010485208622028125 0.00013645024480105715 0.0025719020797731686 0.00061805397595334334 -0.0018115923961768499 -0.0002795240112853847 -0.00018022920646205886 0.00039446109849644887
leaf_weight=188 528 21 24 504 61 1423 477 245 479 82 44 1460 132 1414 550 31 29 116 745 128 57 24 34 232 21 232 20 89 68 250
leaf_count=188 528 21 24 504 61 1423 477 245 479 82 44 1460 132 1414 550 31 29 116 745 128 57 24 34 232 21 232 20 89 68 250
internal_value=2.77461e-07 0.000211468 -0.000194239 -1.85643e-05 4.89998e-05 8.26407e-05 -9.17493e-05 -0.000193392 -8.52286e-06 -0.000422615 -3.74481e-06 -2.86893e-05 0.000155012 0.000232555 -0.000575153 0.000706812 0.000240712 -0.000226251 -1.17279e-05 -0.000305666 -8.42241e-05 -0.000652564 0.000184632 0.000456942 0.00121647 0.00038268 -0.000759269 -0.000647594 -0.000502485 0.00016017
internal_weight=9708 806 300 8902 4611 4218 4291 1978 1101 877 2313 2238 2795 1918 632 75 508 593 877 393 243 81 162 506 42 464 112 150 92 778
internal_count=9708 806 300 8902 4611 4218 4291 1978 1101 877 2313 2238 2795 1918 632 75 508 593 877 393 243 81 162 506 42 464 112 150 92 778
is_linear=0
shrinkage=0.05


Tree=24
num_leaves=31
num_cat=0
split_feature=1 2 3 14 3 5 7 11 14 7 5 14 1 7 14 2 13 2 5 1 12 6 0 3 14 13 1 5 3 6
split_gain=0.014107 0.0158851 0.0199028 0.0279916 0.0210262 0.0239831 0.0202877 0.0147937 0.0163116 0.0270067 0.0387733 0.0175038 0.0159598 0.0147712 0.0132741 0.0140989 0.0128956 0.0119678 0.011268 0.0110838 0.0103187 0.0300339 0.0317512 0.0157938 0.0118592 0.0146584 0.0114598 0.0126603 0.0111886 0.012818
threshold=-1.6284005641937254 0.00012784179125446829 -0.6746067702770232 1.9680615067481997 -0.58266806602478016 -0.9360012114048003 0.85467585921287548 1.0000000180025095e-35 -0.24320694059133527 -0.33835905790328974 0.46754972636699682 0.45914302766323095 -0.97133785486221302 0.44937923550605779 1.0090558528900149 0.00074797161505557608 -1.0318834781646726 -0.92616283893585194 -1.8257510662078855 0.10512335225939752 1.0000000180025095e-35 0.73269054293632518 -0.2905732244253158 -0.44794709980487818 2.4165596961975102 0.10510710626840593 -2.9990897178649898 -1.6608014106750486 -0.3341462761163711 1.9004042744636538
decision_type=2 2 2 2 2 2 2 2 2 2 2 2 2 2 2 2 2 2 2 2 2 2 2 2 2 2 2 2 2 2
left_child=20 7 6 14 13 -6 -3 8 18 11 -11 -10 -9 -5 16 -16 -4 -14 -2 -19 24 22 23 -22 25 28 -23 -28 -1 -30
right_child=1 2 3 4 5 -7 -8 12 9 10 -12 -13 17 -15 15 -17 -18 19 -20 -21 21 26 -24 -25 -26 -27 27 -29 29 -31
leaf_value=-0.00010126646986114632 0.00086287309722509842 0 -0.00019102950907111309 -0.00039127670857528175 -0.0011110679005571563 -4.4963675997999917e-05 0.0017602891875936949 -0.00037720364550110504 -0.00019082824911196972 -0.00059036625761166696 4.7848328488514059e-05 0.0001724313182434349 -5.4284104076372517e-05 -0.0018295844553910996 0.0012762739137493456 0.00012774388726563549 0.00010246333332865306 0.0018737050534666237 -6.1118505276220996e-06 0.00039993934896999286 -0.0001877818844764749 0.0014887485699447613 9.0739002069208669e-05 -0.0020027473004875888 0.0013003802425948633 0.00069696765691753398 -0.0006317801637183108 0.00092490536228001595 0.0006295328706344683 -0.00058069536249441816
leaf_weight=254 38 37 417 50 59 559 34 36 796 708 348 564 22 34 48 73 3300 32 1717 30 22 29 82 39 30 141 23 28 134 24
leaf_count=254 38 37 417 50 59 559 34 36 796 708 348 564 22 34 48 73 3300 32 1717 30 22 29 82 39 30 141 23 28 134 24
internal_value=1.85736e-07 -1.76929e-05 4.63858e-05 3.28181e-05 -0.000256572 -0.00015087 0.000878139 -8.71327e-05 -0.000103371 -0.000187705 -0.000377686 -3.83434e-05 0.00045627 -0.00100394 8.64038e-05 0.000604351 6.88625e-05 0.00084323 1.13034e-05 0.00120178 0.00020074 -7.96841e-05 -0.000523612 -0.00138981 0.000312289 0.000254052 0.000682439 0.000173968 9.63388e-05 0.000429757
internal_weight=9708 8902 4611 4540 702 618 71 4291 4171 2416 1056 1360 120 84 3838 121 3717 84 1755 62 806 223 143 61 583 553 80 51 412 158
internal_count=9708 8902 4611 4540 702 618 71 4291 4171 2416 1056 1360 120 84 3838 121 3717 84 1755 62 806 223 143 61 583 553 80 51 412 158
is_linear=0
shrinkage=0.05


end of trees

feature_importances:
Column_4=114
Column_5=97
Column_14=83
Column_13=82
Column_1=79
Column_3=61
Column_9=48
Column_2=46
Column_6=37
Column_0=25
Column_7=25
Column_12=16
Column_8=10
Column_10=8
Column_11=1

parameters:
[boosting: gbdt]
[objective: regression]
[metric: l2]
[tree_learner: serial]
[device_type: cpu]
[data_sample_strategy: bagging]
[data: ]
[valid: ]
[num_iterations: 1000]
[learning_rate: 0.05]
[num_leaves: 31]
[num_threads: 2]
[seed: 0]
[deterministic: 0]
[force_col_wise: 0]
[force_row_wise: 0]
[histogram_pool_size: -1]
[max_depth: 6]
[min_data_in_leaf: 20]
[min_sum_hessian_in_leaf: 0.001]
[bagging_fraction: 0.85]
[pos_bagging_fraction: 1]
[neg_bagging_fraction: 1]
[bagging_freq: 0]
[bagging_seed: 3]
[bagging_by_query: 0]
[feature_fraction: 0.85]
[feature_fraction_bynode: 1]
[feature_fraction_seed: 2]
[extra_trees: 0]
[extra_seed: 6]
[early_stopping_round: 0]
[early_stopping_min_delta: 0]
[first_metric_only: 0]
[max_delta_step: 0]
[lambda_l1: 0.05]
[lambda_l2: 0.05]
[linear_lambda: 0]
[min_gain_to_split: 0]
[drop_rate: 0.1]
[max_drop: 50]
[skip_drop: 0.5]
[xgboost_dart_mode: 0]
[uniform_drop: 0]
[drop_seed: 4]
[top_rate: 0.2]
[other_rate: 0.1]
[min_data_per_group: 100]
[max_cat_threshold: 32]
[cat_l2: 10]
[cat_smooth: 10]
[max_cat_to_onehot: 4]
[top_k: 20]
[monotone_constraints: ]
[monotone_constraints_method: basic]
[monotone_penalty: 0]
[feature_contri: ]
[forcedsplits_filename: ]
[refit_decay_rate: 0.9]
[cegb_tradeoff: 1]
[cegb_penalty_split: 0]
[cegb_penalty_feature_lazy: ]
[cegb_penalty_feature_coupled: ]
[path_smooth: 0]
[interaction_constraints: ]
[verbosity: -1]
[saved_feature_importance_type: 0]
[use_quantized_grad: 0]
[num_grad_quant_bins: 4]
[quant_train_renew_leaf: 0]
[stochastic_rounding: 1]
[linear_tree: 0]
[max_bin: 255]
[max_bin_by_feature: ]
[min_data_in_bin: 3]
[bin_construct_sample_cnt: 200000]
[data_random_seed: 1]
[is_enable_sparse: 1]
[enable_bundle: 1]
[use_missing: 1]
[zero_as_missing: 0]
[feature_pre_filter: 1]
[pre_partition: 0]
[two_round: 0]
[header: 0]
[label_column: ]
[weight_column: ]
[group_column: ]
[ignore_column: ]
[categorical_feature: ]
[forcedbins_filename: ]
[precise_float_parser: 0]
[parser_config_file: ]
[objective_seed: 5]
[num_class: 1]
[is_unbalance: 0]
[scale_pos_weight: 1]
[sigmoid: 1]
[boost_from_average: 1]
[reg_sqrt: 0]
[alpha: 0.9]
[fair_c: 1]
[poisson_max_delta_step: 0.7]
[tweedie_variance_power: 1.5]
[lambdarank_truncation_level: 30]
[lambdarank_norm: 1]
[label_gain: ]
[lambdarank_position_bias_regularization: 0]
[eval_at: ]
[multi_error_top_k: 1]
[auc_mu_weights: ]
[num_machines: 1]
[local_listen_port: 12400]
[time_out: 120]
[machine_list_filename: ]
[machines: ]
[gpu_platform_id: -1]
[gpu_device_id: -1]
[gpu_use_dp: 0]
[num_gpu: 1]

end of parameters

pandas_categorical:null
